{"learner":{"attributes":{"scikit_learn":"{\"_estimator_type\": \"classifier\"}"},"feature_names":["amount","days_overdue","payment_history_score","shipment_volume_change_30d","email_opened","dispute_flag"],"feature_types":["int","int","float","float","int","int"],"gradient_booster":{"model":{"cats":{"enc":[],"feature_segments":[],"sorted_idx":[]},"gbtree_model_param":{"num_parallel_tree":"1","num_trees":"100"},"iteration_indptr":[0,1,2,3,4,5,6,7,8,9,10,11,12,13,14,15,16,17,18,19,20,21,22,23,24,25,26,27,28,29,30,31,32,33,34,35,36,37,38,39,40,41,42,43,44,45,46,47,48,49,50,51,52,53,54,55,56,57,58,59,60,61,62,63,64,65,66,67,68,69,70,71,72,73,74,75,76,77,78,79,80,81,82,83,84,85,86,87,88,89,90,91,92,93,94,95,96,97,98,99,100],"tree_info":[0,0,0,0,0,0,0,0,0,0,0,0,0,0,0,0,0,0,0,0,0,0,0,0,0,0,0,0,0,0,0,0,0,0,0,0,0,0,0,0,0,0,0,0,0,0,0,0,0,0,0,0,0,0,0,0,0,0,0,0,0,0,0,0,0,0,0,0,0,0,0,0,0,0,0,0,0,0,0,0,0,0,0,0,0,0,0,0,0,0,0,0,0,0,0,0,0,0,0,0],"trees":[{"base_weights":[-2.9034126E-8,-1.2556224E0,1.6265174E0,-1.4452209E-1,-1.5048773E0,6.171618E-1,2.0004766E0,-1.3746336E0,1.3993862E0,-1.6872844E-1,-8.2883155E-1,1.751692E0,-5.434323E-1,1.0841212E0,2.1654148E0,-1.5990509E-1,3.819366E-2,-7.401407E-2,1.9274512E-1,5.1813465E-2,-1.4368066E-1,4.0550213E-3,2.1053329E-1,-1.0366531E-1,1.2882498E-1,1.723358E-1,-7.386164E-2,2.2175239E-1,8.847163E-2],"categories":[],"categories_nodes":[],"categories_segments":[],"categories_sizes":[],"default_left":[0,0,0,0,0,0,0,0,0,0,0,0,0,0,0,0,0,0,0,0,0,0,0,0,0,0,0,0,0],"id":0,"left_children":[1,3,5,7,9,11,13,15,17,-1,19,21,23,25,27,-1,-1,-1,-1,-1,-1,-1,-1,-1,-1,-1,-1,-1,-1],"loss_changes":[4.0453714E2,3.0741135E1,3.1338028E1,4.2923885E1,9.847504E0,3.35735E1,7.1018524E0,5.5460606E0,1.2802294E1,0E0,1.8222952E1,7.6389885E0,1.3088922E1,1.4718041E1,1.5070953E0,0E0,0E0,0E0,0E0,0E0,0E0,0E0,0E0,0E0,0E0,0E0,0E0,0E0,0E0],"parents":[2147483647,0,0,1,1,2,2,3,3,4,4,5,5,6,6,7,7,8,8,10,10,11,11,12,12,13,13,14,14],"right_children":[2,4,6,8,10,12,14,16,18,-1,20,22,24,26,28,-1,-1,-1,-1,-1,-1,-1,-1,-1,-1,-1,-1,-1,-1],"split_conditions":[5.329064E-2,1.8E1,1.7562132E-1,-1.9698249E-1,-1.0305203E-1,4.4E1,2.1308501E-1,8.180267E-1,2.1911748E-1,-1.6872844E-1,3.9E1,1.11880615E-1,7.8943217E-1,5.9E1,8.7E1,-1.5990509E-1,3.819366E-2,-7.401407E-2,1.9274512E-1,5.1813465E-2,-1.4368066E-1,4.0550213E-3,2.1053329E-1,-1.0366531E-1,1.2882498E-1,1.723358E-1,-7.386164E-2,2.2175239E-1,8.847163E-2],"split_indices":[3,1,3,3,3,1,2,2,2,0,1,2,2,1,1,0,0,0,0,0,0,0,0,0,0,0,0,0,0],"split_type":[0,0,0,0,0,0,0,0,0,0,0,0,0,0,0,0,0,0,0,0,0,0,0,0,0,0,0,0,0],"sum_hessian":[1.9608E2,1.107852E2,8.52948E1,2.05884E1,9.01968E1,2.37747E1,6.1520103E1,1.15197E1,9.0687E0,6.98535E1,2.03433E1,1.17648E1,1.20099E1,1.05393E1,5.09808E1,1.02942E1,1.2255E0,1.7157E0,7.353E0,6.3726E0,1.39707E1,2.2059E0,9.5589E0,9.804E0,2.2059E0,7.8432E0,2.6961E0,4.8284702E1,2.6961E0],"tree_param":{"num_deleted":"0","num_feature":"6","num_nodes":"29","size_leaf_vector":"1"}},{"base_weights":[-7.1618146E-5,-1.1612207E0,1.4509702E0,-1.3299811E-1,-1.3961499E0,5.6278694E-1,1.7749068E0,-1.2776247E0,1.2557E0,-1.5698104E-1,-7.622807E-1,1.5694468E0,-4.9309307E-1,1.0796639E0,1.9474813E-1,-1.4936048E-1,3.598598E-2,-6.9877796E-2,1.7286533E-1,-1.1854577E-1,8.79369E-2,3.7744634E-3,1.880777E-1,-1.4232637E-1,4.039505E-2,1.6397838E-1,-3.916658E-2],"categories":[],"categories_nodes":[],"categories_segments":[],"categories_sizes":[],"default_left":[0,0,0,0,0,0,0,0,0,0,0,0,0,0,0,0,0,0,0,0,0,0,0,0,0,0,0],"id":1,"left_children":[1,3,5,7,9,11,13,15,17,-1,19,21,23,25,-1,-1,-1,-1,-1,-1,-1,-1,-1,-1,-1,-1,-1],"loss_changes":[3.3124268E2,2.6194473E1,2.4144516E1,3.5646633E1,8.577347E0,2.7154398E1,5.5246887E0,4.864773E0,1.0618916E1,0E0,1.5658185E1,6.1019115E0,1.1317322E1,1.29099865E1,0E0,0E0,0E0,0E0,0E0,0E0,0E0,0E0,0E0,0E0,0E0,0E0,0E0],"parents":[2147483647,0,0,1,1,2,2,3,3,4,4,5,5,6,6,7,7,8,8,10,10,11,11,12,12,13,13],"right_children":[2,4,6,8,10,12,14,16,18,-1,20,22,24,26,-1,-1,-1,-1,-1,-1,-1,-1,-1,-1,-1,-1,-1],"split_conditions":[5.329064E-2,1.8E1,1.7562132E-1,-1.9698249E-1,-1.0305203E-1,4.4E1,2.967867E-1,8.180267E-1,2.1911748E-1,-1.5698104E-1,8.4792787E-1,1.11880615E-1,5.5876595E-1,5.9E1,1.9474813E-1,-1.4936048E-1,3.598598E-2,-6.9877796E-2,1.7286533E-1,-1.1854577E-1,8.79369E-2,3.7744634E-3,1.880777E-1,-1.4232637E-1,4.039505E-2,1.6397838E-1,-3.916658E-2],"split_indices":[3,1,3,3,3,1,2,2,2,0,2,2,2,1,0,0,0,0,0,0,0,0,0,0,0,0,0],"split_type":[0,0,0,0,0,0,0,0,0,0,0,0,0,0,0,0,0,0,0,0,0,0,0,0,0,0,0],"sum_hessian":[1.9459767E2,1.0820771E2,8.638997E1,2.0416452E1,8.779126E1,2.3819092E1,6.2570877E1,1.1235576E1,9.180877E0,6.77526E1,2.0038654E1,1.19447565E1,1.1874336E1,1.3885842E1,4.868503E1,1.0003946E1,1.2316291E0,1.6957438E0,7.4851327E0,1.6152756E1,3.885898E0,2.207144E0,9.737613E0,5.541538E0,6.3327985E0,9.974256E0,3.9115865E0],"tree_param":{"num_deleted":"0","num_feature":"6","num_nodes":"27","size_leaf_vector":"1"}},{"base_weights":[-3.951555E-4,-1.0833087E0,1.3150103E0,-2.0684075E-1,-1.3309866E0,5.128548E-1,1.6062018E0,-1.149589E0,1.1828961E0,-1.4884949E-1,-7.73008E-1,1.4294324E0,-4.5758903E-1,8.708574E-1,1.737936E0,-1.4427967E-1,7.3486656E-2,-9.608093E-2,1.6302791E-1,-1.2409015E-1,5.1159926E-2,3.513388E-3,1.7134598E-1,-9.130675E-2,1.1573517E-1,1.3969652E-1,-6.660157E-2,1.8000673E-1,8.307046E-2],"categories":[],"categories_nodes":[],"categories_segments":[],"categories_sizes":[],"default_left":[0,0,0,0,0,0,0,0,0,0,0,0,0,0,0,0,0,0,0,0,0,0,0,0,0,0,0,0,0],"id":2,"left_children":[1,3,5,7,9,11,13,15,17,-1,19,21,23,25,27,-1,-1,-1,-1,-1,-1,-1,-1,-1,-1,-1,-1,-1,-1],"loss_changes":[2.7471844E2,2.2686668E1,1.9516647E1,3.3444767E1,6.0812836E0,2.2590006E1,4.629944E0,9.402567E0,1.153186E1,0E0,1.2773295E1,5.0583897E0,1.0425097E1,1.0341722E1,1.4797363E0,0E0,0E0,0E0,0E0,0E0,0E0,0E0,0E0,0E0,0E0,0E0,0E0,0E0,0E0],"parents":[2147483647,0,0,1,1,2,2,3,3,4,4,5,5,6,6,7,7,8,8,10,10,11,11,12,12,13,13,14,14],"right_children":[2,4,6,8,10,12,14,16,18,-1,20,22,24,26,28,-1,-1,-1,-1,-1,-1,-1,-1,-1,-1,-1,-1,-1,-1],"split_conditions":[5.329064E-2,2E1,1.7562132E-1,-1.868368E-1,-1.0305203E-1,4.4E1,2.1308501E-1,8.2478786E-1,2.0106515E-1,-1.4884949E-1,7.425308E-1,1.11880615E-1,7.8943217E-1,5.9E1,8.6E1,-1.4427967E-1,7.3486656E-2,-9.608093E-2,1.6302791E-1,-1.2409015E-1,5.1159926E-2,3.513388E-3,1.7134598E-1,-9.130675E-2,1.1573517E-1,1.3969652E-1,-6.660157E-2,1.8000673E-1,8.307046E-2],"split_indices":[3,1,3,3,3,1,2,2,2,0,2,2,2,1,1,0,0,0,0,0,0,0,0,0,0,0,0,0,0],"split_type":[0,0,0,0,0,0,0,0,0,0,0,0,0,0,0,0,0,0,0,0,0,0,0,0,0,0,0,0,0],"sum_hessian":[1.9085649E2,1.0477579E2,8.60807E1,2.348909E1,8.12867E1,2.3661304E1,6.2419395E1,1.4098184E1,9.390906E0,6.2091595E1,1.9195099E1,1.1925131E1,1.1736174E1,1.0639594E1,5.17798E1,1.2402771E1,1.6954131E0,1.4233034E0,7.967603E0,1.4095212E1,5.0998874E0,2.208286E0,9.7168455E0,9.493294E0,2.2428794E0,7.9940705E0,2.645524E0,4.753993E1,4.2398705E0],"tree_param":{"num_deleted":"0","num_feature":"6","num_nodes":"29","size_leaf_vector":"1"}},{"base_weights":[2.1436758E-4,-1.1552627E0,1.0717353E0,-3.961243E-1,-1.3202802E0,3.3807212E-1,1.4762793E0,-1.1881565E0,7.492801E-1,-1.3994297E0,-7.787607E-1,1.4856676E0,-5.271611E-1,8.880863E-1,1.6241921E0,-1.3242851E-1,-6.178813E-3,-1.07383095E-1,1.4991665E-1,-1.413509E-1,-5.068778E-2,-1.2484467E-1,4.618665E-2,8.268487E-3,1.7061386E-1,-8.886513E-2,7.533151E-2,1.4328805E-1,-2.5748326E-2,1.668911E-1,8.9670755E-2],"categories":[],"categories_nodes":[],"categories_segments":[],"categories_sizes":[],"default_left":[0,0,0,0,0,0,0,0,0,0,0,0,0,0,0,0,0,0,0,0,0,0,0,0,0,0,0,0,0,0,0],"id":3,"left_children":[1,3,5,7,9,11,13,15,17,19,21,23,25,27,29,-1,-1,-1,-1,-1,-1,-1,-1,-1,-1,-1,-1,-1,-1,-1,-1],"loss_changes":[2.3203224E2,1.0772858E1,2.8360489E1,1.6793077E1,2.0665283E0,3.6386833E1,3.9846497E0,1.5665092E0,1.224533E1,7.5157166E-2,7.3626204E0,4.707569E0,1.0473948E1,9.568748E0,8.578491E-2,0E0,0E0,0E0,0E0,0E0,0E0,0E0,0E0,0E0,0E0,0E0,0E0,0E0,0E0,0E0,0E0],"parents":[2147483647,0,0,1,1,2,2,3,3,4,4,5,5,6,6,7,7,8,8,9,9,10,10,11,11,12,12,13,13,14,14],"right_children":[2,4,6,8,10,12,14,16,18,20,22,24,26,28,30,-1,-1,-1,-1,-1,-1,-1,-1,-1,-1,-1,-1,-1,-1,-1,-1],"split_conditions":[-2.6972497E-2,1.8E1,1.7562132E-1,-2.0425244E-1,-1.0305203E-1,3.4E1,2.967867E-1,8.164108E-1,4.549189E-1,9.820495E-1,7.0264024E-1,1.7208923E-1,7.8943217E-1,5.1E1,8.6E1,-1.3242851E-1,-6.178813E-3,-1.07383095E-1,1.4991665E-1,-1.413509E-1,-5.068778E-2,-1.2484467E-1,4.618665E-2,8.268487E-3,1.7061386E-1,-8.886513E-2,7.533151E-2,1.4328805E-1,-2.5748326E-2,1.668911E-1,8.9670755E-2],"split_indices":[3,1,3,3,3,1,2,2,2,2,2,2,2,1,1,0,0,0,0,0,0,0,0,0,0,0,0,0,0,0,0],"split_type":[0,0,0,0,0,0,0,0,0,0,0,0,0,0,0,0,0,0,0,0,0,0,0,0,0,0,0,0,0,0,0],"sum_hessian":[1.8540724E2,8.917116E1,9.6236084E1,1.6529615E1,7.264154E1,3.4856876E1,6.1379208E1,9.750173E0,6.7794423E0,6.199585E1,1.0645689E1,1.4675314E1,2.018156E1,1.3740927E1,4.763828E1,8.542095E0,1.2080774E0,1.8499306E0,4.9295115E0,6.0458504E1,1.5373459E0,7.717599E0,2.9280899E0,2.179696E0,1.2495618E1,1.5977083E1,4.204478E0,9.142339E0,4.5985875E0,4.3660366E1,3.977913E0],"tree_param":{"num_deleted":"0","num_feature":"6","num_nodes":"31","size_leaf_vector":"1"}},{"base_weights":[3.87463E-4,-9.6818876E-1,1.1296965E0,-4.38211E-1,-1.3295383E0,5.462901E-1,1.4146142E0,-1.1839135E0,5.886255E-1,-1.3666849E0,-7.037326E-1,9.521195E-1,-1.3278581E-1,9.3246126E-1,1.5274744E-1,-1.3274142E-1,6.6193394E-2,-8.237848E-2,1.3026188E-1,-3.849887E-2,-1.3804357E-1,-1.1196788E-1,3.8132202E-2,-2.4449706E-2,1.32512E-1,1.425317E-1,-2.8596139E-2],"categories":[],"categories_nodes":[],"categories_segments":[],"categories_sizes":[],"default_left":[0,0,0,0,0,0,0,0,0,0,0,0,0,0,0,0,0,0,0,0,0,0,0,0,0,0,0],"id":4,"left_children":[1,3,5,7,9,11,13,15,17,19,21,23,-1,25,-1,-1,-1,-1,-1,-1,-1,-1,-1,-1,-1,-1,-1],"loss_changes":[1.9795847E2,1.8074501E1,1.3116165E1,3.2081482E1,3.733902E-1,2.335614E1,1.5963287E0,7.2559586E0,1.9135641E1,1.8609619E-1,2.809829E0,1.1240633E1,0E0,8.271906E0,0E0,0E0,0E0,0E0,0E0,0E0,0E0,0E0,0E0,0E0,0E0,0E0,0E0],"parents":[2147483647,0,0,1,1,2,2,3,3,4,4,5,5,6,6,7,7,8,8,9,9,10,10,11,11,13,13],"right_children":[2,4,6,8,10,12,14,16,18,20,22,24,-1,26,-1,-1,-1,-1,-1,-1,-1,-1,-1,-1,-1,-1,-1],"split_conditions":[5.329064E-2,3.4E1,1.9970521E-1,-1.868368E-1,1.1638583E-2,6.6E1,2.967867E-1,9.4850296E-1,4.1165546E-1,2.382E3,7.3620045E-1,2.7623734E-1,-1.3278581E-1,5.9E1,1.5274744E-1,-1.3274142E-1,6.6193394E-2,-8.237848E-2,1.3026188E-1,-3.849887E-2,-1.3804357E-1,-1.1196788E-1,3.8132202E-2,-2.4449706E-2,1.32512E-1,1.425317E-1,-2.8596139E-2],"split_indices":[3,1,3,3,3,1,2,2,2,0,2,2,0,1,0,0,0,0,0,0,0,0,0,0,0,0,0],"split_type":[0,0,0,0,0,0,0,0,0,0,0,0,0,0,0,0,0,0,0,0,0,0,0,0,0,0,0],"sum_hessian":[1.7897876E2,9.6422554E1,8.255621E1,3.9987335E1,5.643522E1,2.8045902E1,5.4510307E1,2.307615E1,1.6911184E1,5.2155487E1,4.2797318E0,2.3458216E1,4.587687E0,1.2096147E1,4.241416E1,2.1672169E1,1.4039823E0,5.6267223E0,1.1284461E1,1.1210217E0,5.1034466E1,3.0706973E0,1.2090347E0,5.65643E0,1.7801786E1,8.491503E0,3.6046438E0],"tree_param":{"num_deleted":"0","num_feature":"6","num_nodes":"27","size_leaf_vector":"1"}},{"base_weights":[-6.283001E-4,-1.0480156E0,9.28181E-1,-3.4497866E-1,-1.2044243E0,2.3683673E-1,1.2599943E0,-1.0710074E0,6.625483E-1,-1.2859535E0,-6.7548114E-1,1.2802699E0,-5.270649E-1,8.07923E-2,1.3340633E0,-1.2098483E-1,-3.1592243E-3,-9.791407E-2,1.3366945E-1,-7.7009045E-2,-1.3336617E-1,-1.1293528E-1,4.3434028E-2,-7.969793E-3,1.5131108E-1,-9.521886E-2,5.6586992E-2,-1.1289064E-1,9.128314E-2,1.4941381E-1,9.194261E-2],"categories":[],"categories_nodes":[],"categories_segments":[],"categories_sizes":[],"default_left":[0,0,0,0,0,0,0,0,0,0,0,0,0,0,0,0,0,0,0,0,0,0,0,0,0,0,0,0,0,0,0],"id":5,"left_children":[1,3,5,7,9,11,13,15,17,19,21,23,25,27,29,-1,-1,-1,-1,-1,-1,-1,-1,-1,-1,-1,-1,-1,-1,-1,-1],"loss_changes":[1.6941489E2,8.584679E0,2.0874687E1,1.2630674E1,2.0013733E0,2.5515242E1,5.3191986E0,1.3838129E0,9.546375E0,3.6489105E-1,6.0286694E0,4.383976E0,9.227694E0,5.7980223E0,2.502304E0,0E0,0E0,0E0,0E0,0E0,0E0,0E0,0E0,0E0,0E0,0E0,0E0,0E0,0E0,0E0,0E0],"parents":[2147483647,0,0,1,1,2,2,3,3,4,4,5,5,6,6,7,7,8,8,9,9,10,10,11,11,12,12,13,13,14,14],"right_children":[2,4,6,8,10,12,14,16,18,20,22,24,26,28,30,-1,-1,-1,-1,-1,-1,-1,-1,-1,-1,-1,-1,-1,-1,-1,-1],"split_conditions":[-2.6972497E-2,1.8E1,1.5190087E-1,-2.0425244E-1,-1.0305203E-1,3.4E1,4.764126E-2,8.164108E-1,4.549189E-1,2.4E1,7.0264024E-1,1.7208923E-1,7.425308E-1,2.567581E-1,6.4E1,-1.2098483E-1,-3.1592243E-3,-9.791407E-2,1.3366945E-1,-7.7009045E-2,-1.3336617E-1,-1.1293528E-1,4.3434028E-2,-7.969793E-3,1.5131108E-1,-9.521886E-2,5.6586992E-2,-1.1289064E-1,9.128314E-2,1.4941381E-1,9.194261E-2],"split_indices":[3,1,3,3,3,1,2,2,2,1,2,2,2,3,1,0,0,0,0,0,0,0,0,0,0,0,0,0,0,0,0],"split_type":[0,0,0,0,0,0,0,0,0,0,0,0,0,0,0,0,0,0,0,0,0,0,0,0,0,0,0,0,0,0,0],"sum_hessian":[1.7214775E2,8.0848854E1,9.12989E1,1.5296903E1,6.5551956E1,3.0164309E1,6.113459E1,8.853804E0,6.4430995E0,5.5557384E1,9.994568E0,1.2463765E1,1.7700544E1,3.736654E0,5.7397938E1,7.665859E0,1.1879447E0,1.743905E0,4.6991944E0,6.154225E0,4.940316E1,7.081091E0,2.9134762E0,1.9181323E0,1.0545633E1,1.2836322E1,4.8642216E0,1.377344E0,2.3593102E0,3.9532528E1,1.7865408E1],"tree_param":{"num_deleted":"0","num_feature":"6","num_nodes":"31","size_leaf_vector":"1"}},{"base_weights":[-1.4495002E-3,-1.0042545E0,8.6834854E-1,-5.880475E-1,-1.2609667E0,2.593387E-1,1.2048447E0,-1.2094658E-1,2.6101646E-1,-3.447691E-2,-1.2748963E0,1.1041213E0,-6.223144E-1,5.8132416E-1,1.3243201E0,-7.8502744E-2,1.11148514E-1,-1.2914848E-1,-3.7244234E-2,-1.2549944E-2,1.4591166E-1,-1.0185752E-1,4.0791746E-2,1.0343879E-1,-6.31627E-2,1.400404E-1,4.5361664E-2],"categories":[],"categories_nodes":[],"categories_segments":[],"categories_sizes":[],"default_left":[0,0,0,0,0,0,0,0,0,0,0,0,0,0,0,0,0,0,0,0,0,0,0,0,0,0,0],"id":6,"left_children":[1,3,5,7,9,11,13,-1,15,-1,17,19,21,23,25,-1,-1,-1,-1,-1,-1,-1,-1,-1,-1,-1,-1],"loss_changes":[1.455247E2,7.538414E0,1.7997246E1,1.6902744E1,1.6101837E-1,2.5319134E1,3.4968262E0,0E0,1.3423167E1,0E0,2.0735931E-1,7.7126865E0,7.28303E0,6.6940937E0,2.4970474E0,0E0,0E0,0E0,0E0,0E0,0E0,0E0,0E0,0E0,0E0,0E0,0E0],"parents":[2147483647,0,0,1,1,2,2,3,3,4,4,5,5,6,6,8,8,10,10,11,11,12,12,13,13,14,14],"right_children":[2,4,6,8,10,12,14,-1,16,-1,18,20,22,24,26,-1,-1,-1,-1,-1,-1,-1,-1,-1,-1,-1,-1],"split_conditions":[-2.6972497E-2,3.3E1,1.6279627E-1,6.1852705E-1,2.382E3,4.4E1,2.1308501E-1,-1.2094658E-1,-2.062241E-1,-3.447691E-2,9.7537327E-1,2.4713156E-1,7.425308E-1,5.9E1,8.6E1,-7.8502744E-2,1.11148514E-1,-1.2914848E-1,-3.7244234E-2,-1.2549944E-2,1.4591166E-1,-1.0185752E-1,4.0791746E-2,1.0343879E-1,-6.31627E-2,1.400404E-1,4.5361664E-2],"split_indices":[3,1,3,2,0,1,2,0,3,0,2,2,2,1,1,0,0,0,0,0,0,0,0,0,0,0,0],"split_type":[0,0,0,0,0,0,0,0,0,0,0,0,0,0,0,0,0,0,0,0,0,0,0,0,0,0,0],"sum_hessian":[1.6484085E2,7.649448E1,8.834637E1,3.0437273E1,4.6057205E1,3.207177E1,5.62746E1,1.7329546E1,1.3107726E1,1.0754014E0,4.4981804E1,1.6249495E1,1.5822275E1,9.992287E0,4.6282314E1,5.912511E0,7.195215E0,4.374659E1,1.235215E0,3.7851374E0,1.2464356E1,1.1435227E1,4.387048E0,7.3821187E0,2.6101682E0,4.2003593E1,4.278718E0],"tree_param":{"num_deleted":"0","num_feature":"6","num_nodes":"27","size_leaf_vector":"1"}},{"base_weights":[-1.7853552E-3,-8.36506E-1,9.4769394E-1,-3.5456872E-1,-1.1809385E0,1.1839128E0,4.0298355E-1,-1.0412627E0,5.031557E-1,-1.5444604E-2,-1.2054781E0,4.0406895E-1,1.3043114E0,-9.262114E-1,8.9442617E-1,-1.1975439E-1,6.773934E-2,-7.162055E-2,1.0877023E-1,-1.2438013E-1,-6.47107E-2,1.3135792E-1,-2.8309524E-2,5.8945365E-2,1.3517497E-1,8.168374E-3,-1.181766E-1,-5.0250918E-2,1.18921734E-1],"categories":[],"categories_nodes":[],"categories_segments":[],"categories_sizes":[],"default_left":[0,0,0,0,0,0,0,0,0,0,0,0,0,0,0,0,0,0,0,0,0,0,0,0,0,0,0,0,0],"id":7,"left_children":[1,3,5,7,9,11,13,15,17,-1,19,21,23,25,27,-1,-1,-1,-1,-1,-1,-1,-1,-1,-1,-1,-1,-1,-1],"loss_changes":[1.2610796E2,1.3636787E1,9.101433E0,2.2152676E1,1.0469208E0,4.29982E0,1.6527725E1,6.376417E0,1.2897358E1,0E0,2.1504211E-1,5.574371E0,6.981659E-1,1.894032E0,8.032704E0,0E0,0E0,0E0,0E0,0E0,0E0,0E0,0E0,0E0,0E0,0E0,0E0,0E0,0E0],"parents":[2147483647,0,0,1,1,2,2,3,3,4,4,5,5,6,6,7,7,8,8,10,10,11,11,12,12,13,13,14,14],"right_children":[2,4,6,8,10,12,14,16,18,-1,20,22,24,26,28,-1,-1,-1,-1,-1,-1,-1,-1,-1,-1,-1,-1,-1,-1],"split_conditions":[5.7310574E-2,3.4E1,6.2E1,-1.868368E-1,2.058E3,1.3264458E-1,2.2752923E-1,9.4850296E-1,4.1165546E-1,-1.5444604E-2,1.1638583E-2,2.6E1,8.119542E-2,6.6E1,2.7136597E-1,-1.1975439E-1,6.773934E-2,-7.162055E-2,1.0877023E-1,-1.2438013E-1,-6.47107E-2,1.3135792E-1,-2.8309524E-2,5.8945365E-2,1.3517497E-1,8.168374E-3,-1.181766E-1,-5.0250918E-2,1.18921734E-1],"split_indices":[3,1,1,3,0,2,3,2,2,0,3,1,3,1,2,0,0,0,0,0,0,0,0,0,0,0,0,0,0],"split_type":[0,0,0,0,0,0,0,0,0,0,0,0,0,0,0,0,0,0,0,0,0,0,0,0,0,0,0,0,0],"sum_hessian":[1.5711647E2,8.367437E1,7.34421E1,3.5721508E1,4.7952866E1,5.0408504E1,2.3033594E1,1.9719831E1,1.6001677E1,1.289899E0,4.6662964E1,7.3242326E0,4.308427E1,5.978631E0,1.7054962E1,1.8354067E1,1.3657646E0,5.112271E0,1.0889405E1,4.251728E1,4.1456842E0,2.759821E0,4.5644116E0,3.5166574E0,3.9567616E1,1.3468977E0,4.6317334E0,2.849122E0,1.420584E1],"tree_param":{"num_deleted":"0","num_feature":"6","num_nodes":"29","size_leaf_vector":"1"}},{"base_weights":[-1.975382E-3,-9.2924684E-1,7.7398366E-1,-1.0721397E0,-2.1537977E-1,3.8151568E-1,1.2327018E0,-1.21829286E-1,-7.301018E-1,1.0228079E-1,-8.001167E-1,1.0628432E0,-2.738715E-1,1.2696397E-1,2.7199358E-2,1.6728252E-2,-1.0877209E-1,-1.1183544E-1,7.224503E-2,-1.0241033E-2,1.2976919E-1,-1.15843154E-1,2.5931774E-2],"categories":[],"categories_nodes":[],"categories_segments":[],"categories_sizes":[],"default_left":[0,0,0,0,0,0,0,0,0,0,0,0,0,0,0,0,0,0,0,0,0,0,0],"id":8,"left_children":[1,3,5,7,9,11,13,-1,15,-1,17,19,21,-1,-1,-1,-1,-1,-1,-1,-1,-1,-1],"loss_changes":[1.09153465E2,6.81892E0,1.4398735E1,1.9766235E0,1.0069838E1,2.0812794E1,9.901428E-1,0E0,6.4912357E0,0E0,5.2852435E0,6.3553066E0,1.1723455E1,0E0,0E0,0E0,0E0,0E0,0E0,0E0,0E0,0E0,0E0],"parents":[2147483647,0,0,1,1,2,2,3,3,4,4,5,5,6,6,8,8,10,10,11,11,12,12],"right_children":[2,4,6,8,10,12,14,-1,16,-1,18,20,22,-1,-1,-1,-1,-1,-1,-1,-1,-1,-1],"split_conditions":[-2.6972497E-2,8.581204E-1,2.7338105E-1,-1.868368E-1,2.4E1,4.4E1,4.6454E4,-1.21829286E-1,2.6E1,1.0228079E-1,-6.888759E-2,1.7208923E-1,4.463869E-1,1.2696397E-1,2.7199358E-2,1.6728252E-2,-1.0877209E-1,-1.1183544E-1,7.224503E-2,-1.0241033E-2,1.2976919E-1,-1.15843154E-1,2.5931774E-2],"split_indices":[3,2,3,3,1,1,0,0,1,0,3,2,2,0,0,0,0,0,0,0,0,0,0],"split_type":[0,0,0,0,0,0,0,0,0,0,0,0,0,0,0,0,0,0,0,0,0,0,0],"sum_hessian":[1.497026E2,6.8111626E1,8.159098E1,5.63336E1,1.1778029E1,4.4957844E1,3.6633133E1,3.767373E1,1.8659868E1,3.5377097E0,8.240319E0,2.1737875E1,2.3219969E1,3.4967125E1,1.6660079E0,5.4688787E0,1.31909895E1,7.0353203E0,1.204999E0,3.7408342E0,1.7997042E1,8.291591E0,1.4928379E1],"tree_param":{"num_deleted":"0","num_feature":"6","num_nodes":"23","size_leaf_vector":"1"}},{"base_weights":[-2.1146634E-3,-7.726307E-1,8.501266E-1,-3.1188858E-1,-1.1138651E0,1.082469E0,3.2744494E-1,-9.640987E-1,4.4222513E-1,-1.3980879E-2,-1.1395835E0,3.5650852E-1,1.2020804E0,-8.6120176E-1,7.8254575E-1,-1.1268312E-1,6.157676E-2,-6.77642E-2,9.80609E-2,-1.20284215E-1,-7.361086E-2,1.22422114E-1,-2.8513461E-2,6.6889904E-2,1.2871788E-1,8.78518E-3,-1.11039355E-1,-3.656624E-2,1.1180778E-1],"categories":[],"categories_nodes":[],"categories_segments":[],"categories_sizes":[],"default_left":[0,0,0,0,0,0,0,0,0,0,0,0,0,0,0,0,0,0,0,0,0,0,0,0,0,0,0,0,0],"id":9,"left_children":[1,3,5,7,9,11,13,15,17,-1,19,21,23,25,27,-1,-1,-1,-1,-1,-1,-1,-1,-1,-1,-1,-1,-1,-1],"loss_changes":[9.49617E1,1.1592918E1,7.9843864E0,1.7003002E1,9.239464E-1,3.6614342E0,1.2880056E1,5.421133E0,1.0501783E1,0E0,1.8631363E-1,4.850171E0,9.5469666E-1,1.6875949E0,6.8969097E0,0E0,0E0,0E0,0E0,0E0,0E0,0E0,0E0,0E0,0E0,0E0,0E0,0E0,0E0],"parents":[2147483647,0,0,1,1,2,2,3,3,4,4,5,5,6,6,7,7,8,8,10,10,11,11,12,12,13,13,14,14],"right_children":[2,4,6,8,10,12,14,16,18,-1,20,22,24,26,28,-1,-1,-1,-1,-1,-1,-1,-1,-1,-1,-1,-1,-1,-1],"split_conditions":[5.7310574E-2,3.4E1,6.2E1,-1.868368E-1,2.058E3,1.3264458E-1,2.2752923E-1,9.4850296E-1,4.1165546E-1,-1.3980879E-2,8.581204E-1,2.6E1,1.1440001E-1,6.6E1,2.967867E-1,-1.1268312E-1,6.157676E-2,-6.77642E-2,9.80609E-2,-1.20284215E-1,-7.361086E-2,1.22422114E-1,-2.8513461E-2,6.6889904E-2,1.2871788E-1,8.78518E-3,-1.11039355E-1,-3.656624E-2,1.1180778E-1],"split_indices":[3,1,1,3,0,2,3,2,2,0,2,1,3,1,2,0,0,0,0,0,0,0,0,0,0,0,0,0,0],"split_type":[0,0,0,0,0,0,0,0,0,0,0,0,0,0,0,0,0,0,0,0,0,0,0,0,0,0,0,0,0],"sum_hessian":[1.426117E2,7.4946014E1,6.766569E1,3.2703304E1,4.2242706E1,4.6101616E1,2.1564072E1,1.7387196E1,1.5316111E1,1.2522223E0,4.0990486E1,7.084433E0,3.901718E1,5.72334E0,1.5840733E1,1.602347E1,1.363726E0,4.888698E0,1.0427413E1,3.3722168E1,7.268318E0,2.6256897E0,4.458743E0,6.5897365E0,3.242745E1,1.3248949E0,4.398445E0,3.5619054E0,1.2278827E1],"tree_param":{"num_deleted":"0","num_feature":"6","num_nodes":"29","size_leaf_vector":"1"}},{"base_weights":[-2.131055E-3,-8.669683E-1,6.948217E-1,-1.1379222E0,-4.6539804E-1,2.3962574E-1,1.0460683E0,-9.012417E-3,-1.1662705E-1,2.6321065E-1,-1.0269725E0,8.458879E-1,-5.786083E-1,1.2173004E0,7.054475E-1,-7.294244E-2,8.842202E-2,-1.1201624E-1,-1.8205024E-2,-1.5949443E-2,1.1817352E-1,-9.0226725E-2,2.6905088E-2,3.9793704E-2,1.2426722E-1,-4.6354435E-2,9.7776555E-2],"categories":[],"categories_nodes":[],"categories_segments":[],"categories_sizes":[],"default_left":[0,0,0,0,0,0,0,0,0,0,0,0,0,0,0,0,0,0,0,0,0,0,0,0,0,0,0],"id":10,"left_children":[1,3,5,7,9,11,13,-1,-1,15,17,19,21,23,25,-1,-1,-1,-1,-1,-1,-1,-1,-1,-1,-1,-1],"loss_changes":[8.284961E1,6.144356E0,1.191917E1,9.6222305E-1,1.1074113E1,1.7578545E1,1.6297836E0,0E0,0E0,8.220305E0,9.8623466E-1,7.00708E0,4.428109E0,6.7092896E-2,5.7540483E0,0E0,0E0,0E0,0E0,0E0,0E0,0E0,0E0,0E0,0E0,0E0,0E0],"parents":[2147483647,0,0,1,1,2,2,3,3,4,4,5,5,6,6,9,9,10,10,11,11,12,12,13,13,14,14],"right_children":[2,4,6,8,10,12,14,-1,-1,16,18,20,22,24,26,-1,-1,-1,-1,-1,-1,-1,-1,-1,-1,-1,-1],"split_conditions":[-2.6972497E-2,6.416319E-1,1.9970521E-1,3E0,3.3E1,4.8E1,6.2E1,-9.012417E-3,-1.1662705E-1,-2.340023E-1,-6.888759E-2,2.676008E-1,7.4677664E-1,2.2141475E-2,2.7136597E-1,-7.294244E-2,8.842202E-2,-1.1201624E-1,-1.8205024E-2,-1.5949443E-2,1.1817352E-1,-9.0226725E-2,2.6905088E-2,3.9793704E-2,1.2426722E-1,-4.6354435E-2,9.7776555E-2],"split_indices":[3,2,3,1,1,1,1,0,0,3,3,2,2,2,2,0,0,0,0,0,0,0,0,0,0,0,0],"split_type":[0,0,0,0,0,0,0,0,0,0,0,0,0,0,0,0,0,0,0,0,0,0,0,0,0,0,0],"sum_hessian":[1.3545312E2,6.0337444E1,7.5115685E1,3.493313E1,2.5404316E1,3.344938E1,4.1666306E1,1.0303161E0,3.3902813E1,1.1288924E1,1.4115393E1,1.9193989E1,1.4255388E1,2.6014767E1,1.5651539E1,4.2773447E0,7.0115795E0,1.2419805E1,1.695588E0,4.93771E0,1.425628E1,1.0269714E1,3.985674E0,1.2824734E0,2.4732294E1,2.8244932E0,1.2827045E1],"tree_param":{"num_deleted":"0","num_feature":"6","num_nodes":"27","size_leaf_vector":"1"}},{"base_weights":[-2.2351223E-3,-7.179307E-1,7.7366155E-1,-2.7925116E-1,-1.0560092E0,4.1602585E-1,1.1022655E0,-8.9765024E-1,3.935766E-1,-1.0669923E-2,-1.0841591E0,7.693164E-1,-4.719467E-1,1.1421893E-1,1.791274E-2,-1.1067604E-1,3.9837662E-2,-6.0848452E-2,8.682701E-2,-1.1539399E-1,-6.668572E-2,-3.3631306E-2,1.01104416E-1,-1.02902055E-1,7.712758E-2],"categories":[],"categories_nodes":[],"categories_segments":[],"categories_sizes":[],"default_left":[0,0,0,0,0,0,0,0,0,0,0,0,0,0,0,0,0,0,0,0,0,0,0,0,0],"id":11,"left_children":[1,3,5,7,9,11,13,15,17,-1,19,21,23,-1,-1,-1,-1,-1,-1,-1,-1,-1,-1,-1,-1],"loss_changes":[7.241779E1,9.765648E0,6.895279E0,1.3203555E1,8.984909E-1,1.0267009E1,9.749489E-1,4.8849487E0,7.894805E0,0E0,3.0060196E-1,6.477626E0,7.4459867E0,0E0,0E0,0E0,0E0,0E0,0E0,0E0,0E0,0E0,0E0,0E0,0E0],"parents":[2147483647,0,0,1,1,2,2,3,3,4,4,5,5,6,6,7,7,8,8,10,10,11,11,12,12],"right_children":[2,4,6,8,10,12,14,16,18,-1,20,22,24,-1,-1,-1,-1,-1,-1,-1,-1,-1,-1,-1,-1],"split_conditions":[5.7310574E-2,3.4E1,2.7338105E-1,-1.868368E-1,2.058E3,6.2E1,4.6454E4,9.065722E-1,4.1165546E-1,-1.0669923E-2,8.581204E-1,1.3264458E-1,8.080793E-1,1.1421893E-1,1.791274E-2,-1.1067604E-1,3.9837662E-2,-6.0848452E-2,8.682701E-2,-1.1539399E-1,-6.668572E-2,-3.3631306E-2,1.01104416E-1,-1.02902055E-1,7.712758E-2],"split_indices":[3,1,3,3,0,1,0,2,2,0,2,2,2,0,0,0,0,0,0,0,0,0,0,0,0],"split_type":[0,0,0,0,0,0,0,0,0,0,0,0,0,0,0,0,0,0,0,0,0,0,0,0,0],"sum_hessian":[1.2841045E2,6.683543E1,6.1575016E1,2.9884403E1,3.6951023E1,3.057011E1,3.1004904E1,1.539794E1,1.4486463E1,1.2021168E0,3.5748905E1,2.1964783E1,8.605327E0,2.9492144E1,1.5127617E0,1.3384437E1,2.0135033E0,4.5659847E0,9.920478E0,2.9115084E1,6.633822E0,3.8704746E0,1.8094309E1,6.061523E0,2.5438035E0],"tree_param":{"num_deleted":"0","num_feature":"6","num_nodes":"25","size_leaf_vector":"1"}},{"base_weights":[-3.0866312E-3,-8.5269445E-1,6.040726E-1,-3.2464287E-1,-1.0695214E0,1.0176563E0,2.354852E-1,-9.587125E-1,4.2079657E-1,-1.12622574E-1,-2.6263192E-1,4.517843E-1,1.1939563E-1,-5.515472E-1,7.2451746E-1,-1.04002334E-1,-1.8309122E-2,-8.065174E-2,9.498051E-2,-7.2467946E-2,4.2220682E-2,-4.2012345E-2,1.01296924E-1,-9.511625E-2,2.0447722E-2,-1.0487241E-2,9.8264776E-2],"categories":[],"categories_nodes":[],"categories_segments":[],"categories_sizes":[],"default_left":[0,0,0,0,0,0,0,0,0,0,0,0,0,0,0,0,0,0,0,0,0,0,0,0,0,0,0],"id":12,"left_children":[1,3,5,7,9,11,13,15,17,-1,19,21,-1,23,25,-1,-1,-1,-1,-1,-1,-1,-1,-1,-1,-1,-1],"loss_changes":[6.3887127E1,5.56271E0,1.0771757E1,8.183897E0,1.3584976E0,2.826397E0,1.5600808E1,3.8979244E-1,6.1295767E0,0E0,1.4698321E0,5.1341443E0,0E0,4.938915E0,5.4107227E0,0E0,0E0,0E0,0E0,0E0,0E0,0E0,0E0,0E0,0E0,0E0,0E0],"parents":[2147483647,0,0,1,1,2,2,3,3,4,4,5,5,6,6,7,7,8,8,10,10,11,11,13,13,14,14],"right_children":[2,4,6,8,10,12,14,16,18,-1,20,22,-1,24,26,-1,-1,-1,-1,-1,-1,-1,-1,-1,-1,-1,-1],"split_conditions":[-4.57216E-2,2.4E1,4.4E1,6.1852705E-1,-6.888759E-2,2.4713156E-1,1.6279627E-1,-1.4323129E-1,-3.005884E-1,-1.12622574E-1,6.7434895E-1,1.4751646E-1,1.1939563E-1,7.146413E-1,2.967867E-1,-1.04002334E-1,-1.8309122E-2,-8.065174E-2,9.498051E-2,-7.2467946E-2,4.2220682E-2,-4.2012345E-2,1.01296924E-1,-9.511625E-2,2.0447722E-2,-1.0487241E-2,9.8264776E-2],"split_indices":[3,1,1,2,3,2,3,3,3,0,2,3,0,2,2,0,0,0,0,0,0,0,0,0,0,0,0],"split_type":[0,0,0,0,0,0,0,0,0,0,0,0,0,0,0,0,0,0,0,0,0,0,0,0,0,0,0],"sum_hessian":[1.2185041E2,5.061692E1,7.123349E1,1.54610195E1,3.51559E1,3.273797E1,3.849552E1,8.200005E0,7.2610154E0,3.2477757E1,2.678142E0,8.62305E0,2.4114918E1,1.470383E1,2.3791693E1,7.1133947E0,1.0866098E0,2.0290294E0,5.231986E0,1.5644573E0,1.1136847E0,3.4751327E0,5.1479173E0,9.450451E0,5.2533784E0,5.7880435E0,1.8003649E1],"tree_param":{"num_deleted":"0","num_feature":"6","num_nodes":"27","size_leaf_vector":"1"}},{"base_weights":[-3.73717E-3,-7.342391E-1,6.510773E-1,-3.7562835E-1,-1.097245E-1,3.168147E-1,1.028578E0,-7.5770366E-1,4.6914485E-1,6.575293E-1,-5.485291E-1,1.0714109E0,1.3004941E-2,-9.513564E-2,4.2559262E-2,-7.5026326E-2,9.584934E-2,-1.4835412E-2,9.673285E-2,-1.01441935E-1,7.0039175E-2,3.5600778E-2,1.0971029E-1],"categories":[],"categories_nodes":[],"categories_segments":[],"categories_sizes":[],"default_left":[0,0,0,0,0,0,0,0,0,0,0,0,0,0,0,0,0,0,0,0,0,0,0],"id":13,"left_children":[1,3,5,7,-1,9,11,13,15,17,19,21,-1,-1,-1,-1,-1,-1,-1,-1,-1,-1,-1],"loss_changes":[5.6098194E1,6.8038445E0,7.477974E0,9.846528E0,0E0,1.0457591E1,9.613342E-1,5.1322355E0,6.5521603E0,6.3915977E0,6.656961E0,1.0861397E-1,0E0,0E0,0E0,0E0,0E0,0E0,0E0,0E0,0E0,0E0,0E0],"parents":[2147483647,0,0,1,1,2,2,3,3,5,5,6,6,7,7,8,8,9,9,10,10,11,11],"right_children":[2,4,6,8,-1,10,12,14,16,18,20,22,-1,-1,-1,-1,-1,-1,-1,-1,-1,-1,-1],"split_conditions":[1.8276177E-2,3.9E1,2.7338105E-1,-1.330386E-1,-1.097245E-1,6.2E1,4.6454E4,9.065722E-1,3.6948192E-1,2.7623734E-1,8.080793E-1,3.563E3,1.3004941E-2,-9.513564E-2,4.2559262E-2,-7.5026326E-2,9.584934E-2,-1.4835412E-2,9.673285E-2,-1.01441935E-1,7.0039175E-2,3.5600778E-2,1.0971029E-1],"split_indices":[3,1,3,3,0,1,0,2,2,2,2,0,0,0,0,0,0,0,0,0,0,0,0],"split_type":[0,0,0,0,0,0,0,0,0,0,0,0,0,0,0,0,0,0,0,0,0,0,0],"sum_hessian":[1.1527665E2,5.4431892E1,6.0844757E1,2.8405287E1,2.6026604E1,3.3245956E1,2.7598799E1,1.9630049E1,8.775239E0,2.4026197E1,9.219761E0,2.6159372E1,1.4394263E0,1.7037743E1,2.5923054E0,2.360334E0,6.4149055E0,6.816222E0,1.7209976E1,6.851631E0,2.3681297E0,1.4219307E0,2.4737442E1],"tree_param":{"num_deleted":"0","num_feature":"6","num_nodes":"23","size_leaf_vector":"1"}},{"base_weights":[-3.3244702E-3,-5.606544E-1,7.8384364E-1,6.680446E-2,-8.29025E-1,1.0065753E0,2.2349611E-1,-7.0343184E-1,7.4134016E-1,-1.0876157E-1,-3.6629254E-1,-1.4514272E-1,1.1112182E0,-9.1032036E-2,5.8172053E-1,-1.01225816E-1,5.670603E-2,-3.1770043E-2,9.696292E-2,-1.0189249E-1,3.7796672E-2,-7.592735E-2,6.790542E-2,7.234279E-2,1.1894234E-1,-6.2757514E-2,8.406613E-2],"categories":[],"categories_nodes":[],"categories_segments":[],"categories_sizes":[],"default_left":[0,0,0,0,0,0,0,0,0,0,0,0,0,0,0,0,0,0,0,0,0,0,0,0,0,0,0],"id":14,"left_children":[1,3,5,7,9,11,13,15,17,-1,19,21,23,-1,25,-1,-1,-1,-1,-1,-1,-1,-1,-1,-1,-1,-1],"loss_changes":[4.8887527E1,1.1040951E1,5.54039E0,1.1156377E1,5.078247E0,4.110668E0,6.3881907E0,4.525036E0,3.064077E0,0E0,9.087288E0,2.344806E0,5.4080963E-2,0E0,4.1509943E0,0E0,0E0,0E0,0E0,0E0,0E0,0E0,0E0,0E0,0E0,0E0,0E0],"parents":[2147483647,0,0,1,1,2,2,3,3,4,4,5,5,6,6,7,7,8,8,10,10,11,11,12,12,14,14],"right_children":[2,4,6,8,10,12,14,16,18,-1,20,22,24,-1,26,-1,-1,-1,-1,-1,-1,-1,-1,-1,-1,-1,-1],"split_conditions":[1.1440001E-1,2.4E1,6.6E1,-1.868368E-1,-6.888759E-2,4.2837556E-2,2.2752923E-1,8.3826536E-1,2.0106515E-1,-1.0876157E-1,6.300399E-1,3.1046823E-1,2.7623734E-1,-9.1032036E-2,2.1308501E-1,-1.01225816E-1,5.670603E-2,-3.1770043E-2,9.696292E-2,-1.0189249E-1,3.7796672E-2,-7.592735E-2,6.790542E-2,7.234279E-2,1.1894234E-1,-6.2757514E-2,8.406613E-2],"split_indices":[3,1,1,3,3,2,3,2,2,0,2,3,2,0,2,0,0,0,0,0,0,0,0,0,0,0,0],"split_type":[0,0,0,0,0,0,0,0,0,0,0,0,0,0,0,0,0,0,0,0,0,0,0,0,0,0,0],"sum_hessian":[1.0943241E2,6.423826E1,4.519415E1,1.946936E1,4.47689E1,3.1769714E1,1.3424434E1,9.069861E0,1.0399498E1,2.7853172E1,1.6915731E1,2.61388E0,2.9155834E1,2.8530478E0,1.0571386E1,7.4598136E0,1.6100478E0,1.7747434E0,8.624755E0,8.816018E0,8.099712E0,1.5429552E0,1.0709246E0,6.6133065E0,2.2542528E1,1.6133155E0,8.958071E0],"tree_param":{"num_deleted":"0","num_feature":"6","num_nodes":"27","size_leaf_vector":"1"}},{"base_weights":[-3.8298129E-3,-6.8800956E-1,5.907999E-1,-3.367687E-1,-1.0606413E0,1.0616361E-1,3.3135483E-1,-9.026036E-1,1.8034281E-1,-1.0878509E-1,-3.2650452E-2,-1.4764535E-1,8.168338E-1,-1.0308484E-1,2.0853134E-2,-6.611515E-2,7.688778E-2,-4.857386E-2,9.778807E-2,9.016233E-2,-2.696499E-2],"categories":[],"categories_nodes":[],"categories_segments":[],"categories_sizes":[],"default_left":[0,0,0,0,0,0,0,0,0,0,0,0,0,0,0,0,0,0,0,0,0],"id":15,"left_children":[1,3,5,7,9,-1,11,13,15,-1,-1,17,19,-1,-1,-1,-1,-1,-1,-1,-1],"loss_changes":[4.290892E1,6.061308E0,6.5416794E0,7.9780297E0,1.1084366E-1,0E0,8.919382E0,2.0561028E0,7.8326674E0,0E0,0E0,8.044737E0,1.9883356E0,0E0,0E0,0E0,0E0,0E0,0E0,0E0,0E0],"parents":[2147483647,0,0,1,1,2,2,3,3,4,4,6,6,7,7,8,8,11,11,12,12],"right_children":[2,4,6,8,10,-1,12,14,16,-1,-1,18,20,-1,-1,-1,-1,-1,-1,-1,-1],"split_conditions":[1.8276177E-2,3.9E1,3.6E1,5.625552E-1,9.7537327E-1,1.0616361E-1,2.567581E-1,-2.6972497E-2,-2.0425244E-1,-1.0878509E-1,-3.2650452E-2,8.080793E-1,4.5965E4,-1.0308484E-1,2.0853134E-2,-6.611515E-2,7.688778E-2,-4.857386E-2,9.778807E-2,9.016233E-2,-2.696499E-2],"split_indices":[3,1,1,2,2,0,3,3,3,0,0,2,0,0,0,0,0,0,0,0,0],"split_type":[0,0,0,0,0,0,0,0,0,0,0,0,0,0,0,0,0,0,0,0,0],"sum_hessian":[1.03471306E2,4.8039787E1,5.543152E1,2.5709703E1,2.2330084E1,1.8594543E1,3.6836975E1,1.1920526E1,1.3789177E1,2.1067444E1,1.262641E0,1.8892488E1,1.7944487E1,1.075183E1,1.168696E0,5.624218E0,8.164959E0,1.4965487E1,3.927001E0,1.6803297E1,1.1411881E0],"tree_param":{"num_deleted":"0","num_feature":"6","num_nodes":"21","size_leaf_vector":"1"}},{"base_weights":[-3.8716842E-3,-5.327093E-1,7.055933E-1,6.826963E-2,-7.98752E-1,9.6842206E-1,2.2045547E-1,-6.4469945E-1,6.7637295E-1,-1.0796552E-1,-3.8162968E-1,-4.6299864E-2,1.0612462E-1,-2.2240798E-1,9.869772E-2,-9.736654E-2,5.5369385E-2,-3.8341373E-2,8.758577E-2,-1.00361824E-1,2.8767997E-2,-7.771224E-2,6.8560325E-2,-1.1361406E-1,3.6635403E-2],"categories":[],"categories_nodes":[],"categories_segments":[],"categories_sizes":[],"default_left":[0,0,0,0,0,0,0,0,0,0,0,0,0,0,0,0,0,0,0,0,0,0,0,0,0],"id":16,"left_children":[1,3,5,7,9,11,13,15,17,-1,19,21,-1,23,-1,-1,-1,-1,-1,-1,-1,-1,-1,-1,-1],"loss_changes":[3.765593E1,9.247658E0,5.252102E0,8.484785E0,4.2670403E0,2.6401005E0,5.7721305E0,4.1097927E0,2.5571103E0,0E0,7.6227503E0,2.2784848E0,0E0,6.4325447E0,0E0,0E0,0E0,0E0,0E0,0E0,0E0,0E0,0E0,0E0,0E0],"parents":[2147483647,0,0,1,1,2,2,3,3,4,4,5,5,6,6,7,7,8,8,10,10,11,11,13,13],"right_children":[2,4,6,8,10,12,14,16,18,-1,20,22,-1,24,-1,-1,-1,-1,-1,-1,-1,-1,-1,-1,-1],"split_conditions":[1.0548125E-1,2.4E1,6.2E1,-1.868368E-1,-1.0305203E-1,4.2837556E-2,3.6629245E-1,8.3826536E-1,1.7208923E-1,-1.0796552E-1,6.3832223E-1,2.894923E-1,1.0612462E-1,4.463869E-1,9.869772E-2,-9.736654E-2,5.5369385E-2,-3.8341373E-2,8.758577E-2,-1.00361824E-1,2.8767997E-2,-7.771224E-2,6.8560325E-2,-1.1361406E-1,3.6635403E-2],"split_indices":[3,1,1,3,3,2,3,2,2,0,2,3,0,2,0,0,0,0,0,0,0,0,0,0,0],"split_type":[0,0,0,0,0,0,0,0,0,0,0,0,0,0,0,0,0,0,0,0,0,0,0,0,0],"sum_hessian":[9.8362656E1,5.6497997E1,4.1864662E1,1.7564327E1,3.893367E1,2.6507664E1,1.5356997E1,8.05734E0,9.506988E0,2.2316622E1,1.6617048E1,2.2636297E0,2.4244034E1,1.0183344E1,5.1736526E0,6.4690676E0,1.5882725E0,1.3599687E0,8.147019E0,8.354106E0,8.262942E0,1.1017367E0,1.161893E0,3.6260946E0,6.5572495E0],"tree_param":{"num_deleted":"0","num_feature":"6","num_nodes":"25","size_leaf_vector":"1"}},{"base_weights":[-4.6568555E-3,-7.391677E-1,4.6864226E-1,-9.291635E-1,-1.324569E-1,8.8632566E-1,1.2693262E-1,-4.377154E-1,-1.04124025E-1,3.9650494E-1,-8.888101E-2,3.429065E-1,1.08353615E-1,-3.4974456E-1,6.991376E-1,-8.75263E-2,3.2364637E-2,-2.784876E-2,9.470656E-2,9.035223E-2,-3.2012355E-2,-1.0835997E-1,3.9810697E-3,-1.030422E-2,9.293886E-2],"categories":[],"categories_nodes":[],"categories_segments":[],"categories_sizes":[],"default_left":[0,0,0,0,0,0,0,0,0,0,0,0,0,0,0,0,0,0,0,0,0,0,0,0,0],"id":17,"left_children":[1,3,5,7,9,11,13,15,-1,17,-1,19,-1,21,23,-1,-1,-1,-1,-1,-1,-1,-1,-1,-1],"loss_changes":[3.3096825E1,4.177105E0,8.15171E0,1.0997982E0,4.37824E0,2.4027748E0,9.249547E0,2.605173E0,0E0,2.7212458E0,0E0,3.3952827E0,0E0,5.382579E0,2.9286323E0,0E0,0E0,0E0,0E0,0E0,0E0,0E0,0E0,0E0,0E0],"parents":[2147483647,0,0,1,1,2,2,3,3,4,4,5,5,6,6,7,7,9,9,11,11,13,13,14,14],"right_children":[2,4,6,8,10,12,14,16,-1,18,-1,20,-1,22,24,-1,-1,-1,-1,-1,-1,-1,-1,-1,-1],"split_conditions":[-4.57216E-2,8.2478786E-1,4.4E1,1.7E1,4.5E1,2.4713156E-1,2.567581E-1,-1.868368E-1,-1.04124025E-1,-2.062241E-1,-8.888101E-2,2.6E1,1.08353615E-1,4.463869E-1,2.1308501E-1,-8.75263E-2,3.2364637E-2,-2.784876E-2,9.470656E-2,9.035223E-2,-3.2012355E-2,-1.0835997E-1,3.9810697E-3,-1.030422E-2,9.293886E-2],"split_indices":[3,2,1,1,1,2,3,3,0,3,0,1,0,2,2,0,0,0,0,0,0,0,0,0,0],"split_type":[0,0,0,0,0,0,0,0,0,0,0,0,0,0,0,0,0,0,0,0,0,0,0,0,0],"sum_hessian":[9.3206955E1,3.630447E1,5.690248E1,2.7241976E1,9.062494E0,2.4887655E1,3.2014828E1,5.9699025E0,2.1272072E1,5.612861E0,3.4496334E0,7.3562055E0,1.753145E1,1.7677395E1,1.4337433E1,3.6961548E0,2.273748E0,2.7434905E0,2.8693707E0,3.7894077E0,3.5667977E0,5.512035E0,1.21653595E1,3.3207238E0,1.1016709E1],"tree_param":{"num_deleted":"0","num_feature":"6","num_nodes":"25","size_leaf_vector":"1"}},{"base_weights":[-4.9658753E-3,-4.9353957E-1,6.6762966E-1,-7.0811145E-2,-8.446069E-1,9.0506065E-1,1.0861309E-1,-5.9033024E-1,5.5894107E-1,-1.0058511E0,-2.1341342E-1,-1.445868E-1,1.0168205E0,-3.7820026E-1,8.659654E-2,-8.7213665E-2,3.8079094E-2,-5.169442E-2,7.8750454E-2,-1.0425132E-1,-4.0327813E-2,-6.2473338E-2,9.0381645E-2,-7.1631774E-2,4.2372312E-2,5.7835616E-2,1.1256895E-1,-1.0999159E-1,1.3548896E-2],"categories":[],"categories_nodes":[],"categories_segments":[],"categories_sizes":[],"default_left":[0,0,0,0,0,0,0,0,0,0,0,0,0,0,0,0,0,0,0,0,0,0,0,0,0,0,0,0,0],"id":18,"left_children":[1,3,5,7,9,11,13,15,17,19,21,23,25,27,-1,-1,-1,-1,-1,-1,-1,-1,-1,-1,-1,-1,-1,-1,-1],"loss_changes":[2.9771852E1,7.727434E0,4.9617424E0,8.475806E0,2.6935463E0,3.2700043E0,4.936658E0,4.198873E0,3.301094E0,7.643318E-2,3.8198419E0,1.4203655E0,5.0341034E-1,3.2283502E0,0E0,0E0,0E0,0E0,0E0,0E0,0E0,0E0,0E0,0E0,0E0,0E0,0E0,0E0,0E0],"parents":[2147483647,0,0,1,1,2,2,3,3,4,4,5,5,6,6,7,7,8,8,9,9,10,10,11,11,12,12,13,13],"right_children":[2,4,6,8,10,12,14,16,18,20,22,24,26,28,-1,-1,-1,-1,-1,-1,-1,-1,-1,-1,-1,-1,-1,-1,-1],"split_conditions":[1.1440001E-1,3.4E1,6.6E1,-1.330386E-1,8.581204E-1,4.2837556E-2,3.6629245E-1,8.3364314E-1,1.7208923E-1,9.277094E-2,1.8276177E-2,2.894923E-1,2.7623734E-1,4.463869E-1,8.659654E-2,-8.7213665E-2,3.8079094E-2,-5.169442E-2,7.8750454E-2,-1.0425132E-1,-4.0327813E-2,-6.2473338E-2,9.0381645E-2,-7.1631774E-2,4.2372312E-2,5.7835616E-2,1.1256895E-1,-1.0999159E-1,1.3548896E-2],"split_indices":[3,1,1,3,2,2,3,2,2,3,3,3,2,2,0,0,0,0,0,0,0,0,0,0,0,0,0,0,0],"split_type":[0,0,0,0,0,0,0,0,0,0,0,0,0,0,0,0,0,0,0,0,0,0,0,0,0,0,0,0,0],"sum_hessian":[8.859596E1,5.1472515E1,3.7123444E1,2.3898033E1,2.7574484E1,2.5621994E1,1.1501448E1,1.31294155E1,1.0768618E1,2.1490868E1,6.0836153E0,2.437289E0,2.3184706E1,7.3059406E0,4.1955075E0,1.0255372E1,2.8740435E0,1.6657858E0,9.102832E0,1.9570076E1,1.9207926E0,4.768764E0,1.3148515E0,1.0851609E0,1.3521281E0,5.867211E0,1.7317495E1,2.5633352E0,4.7426057E0],"tree_param":{"num_deleted":"0","num_feature":"6","num_nodes":"29","size_leaf_vector":"1"}},{"base_weights":[-4.929345E-3,-6.121852E-1,4.9277365E-1,-2.7868813E-1,-1.0017159E0,7.3177E-1,1.2749587E-2,-8.528325E-1,1.9928773E-1,-1.03773415E-1,-2.5786165E-2,2.6967874E-1,9.2340004E-1,-3.7483642E-1,8.9427225E-2,-9.7587235E-2,1.3275935E-2,-5.5717833E-2,6.9219604E-2,-2.4275012E-2,9.483771E-2,4.6544768E-2,1.0895093E-1,-7.4092686E-2,6.653149E-2],"categories":[],"categories_nodes":[],"categories_segments":[],"categories_sizes":[],"default_left":[0,0,0,0,0,0,0,0,0,0,0,0,0,0,0,0,0,0,0,0,0,0,0,0,0],"id":19,"left_children":[1,3,5,7,9,11,13,15,17,-1,-1,19,21,23,-1,-1,-1,-1,-1,-1,-1,-1,-1,-1,-1],"loss_changes":[2.6033758E1,4.760622E0,5.4222364E0,6.285941E0,2.0151138E-1,2.5482864E0,6.059711E0,1.380311E0,5.222637E0,0E0,0E0,3.9420261E0,1.1601372E0,5.1928263E0,0E0,0E0,0E0,0E0,0E0,0E0,0E0,0E0,0E0,0E0,0E0],"parents":[2147483647,0,0,1,1,2,2,3,3,4,4,5,5,6,6,7,7,8,8,11,11,12,12,13,13],"right_children":[2,4,6,8,10,12,14,16,18,-1,-1,20,22,24,-1,-1,-1,-1,-1,-1,-1,-1,-1,-1,-1],"split_conditions":[1.8276177E-2,3.9E1,6.2E1,5.625552E-1,9.7537327E-1,2.7623734E-1,3.6629245E-1,-2.6972497E-2,-2.0425244E-1,-1.03773415E-1,-2.5786165E-2,2.567581E-1,1.1440001E-1,8.080793E-1,8.9427225E-2,-9.7587235E-2,1.3275935E-2,-5.5717833E-2,6.9219604E-2,-2.4275012E-2,9.483771E-2,4.6544768E-2,1.0895093E-1,-7.4092686E-2,6.653149E-2],"split_indices":[3,1,1,2,2,2,3,3,3,0,0,3,3,2,0,0,0,0,0,0,0,0,0,0,0],"split_type":[0,0,0,0,0,0,0,0,0,0,0,0,0,0,0,0,0,0,0,0,0,0,0,0,0],"sum_hessian":[8.4139885E1,3.7795246E1,4.634464E1,2.1286358E1,1.6508888E1,3.0589949E1,1.5754692E1,9.314057E0,1.1972301E1,1.5369597E1,1.1392913E0,9.672719E0,2.0917229E1,1.1342452E1,4.41224E0,8.289118E0,1.0249398E0,4.6719193E0,7.3003817E0,5.8774633E0,3.7952557E0,6.57964E0,1.4337588E1,8.602426E0,2.7400265E0],"tree_param":{"num_deleted":"0","num_feature":"6","num_nodes":"25","size_leaf_vector":"1"}},{"base_weights":[-3.4492898E-3,-4.54062E-1,6.152534E-1,1.0351398E-1,-7.10059E-1,8.492824E-1,9.500012E-2,-5.3764546E-1,5.980893E-1,-1.03755474E-1,-3.153255E-1,-1.6510081E-1,9.6734095E-1,-3.3010224E-1,7.973265E-2,-9.037125E-2,5.1815957E-2,3.600698E-3,1.01634406E-1,-9.091597E-2,2.8859768E-2,-6.8077005E-2,3.7941348E-2,5.2798606E-2,1.08876064E-1,-1.00998715E-1,1.3896371E-2],"categories":[],"categories_nodes":[],"categories_segments":[],"categories_sizes":[],"default_left":[0,0,0,0,0,0,0,0,0,0,0,0,0,0,0,0,0,0,0,0,0,0,0,0,0,0,0],"id":20,"left_children":[1,3,5,7,9,11,13,15,17,-1,19,21,23,25,-1,-1,-1,-1,-1,-1,-1,-1,-1,-1,-1,-1,-1],"loss_changes":[2.28861E1,6.8524323E0,4.1314125E0,5.337014E0,3.8969288E0,3.0021782E0,3.8040233E0,3.333821E0,2.1738374E0,0E0,6.0913477E0,1.1929433E0,5.671177E-1,2.7219732E0,0E0,0E0,0E0,0E0,0E0,0E0,0E0,0E0,0E0,0E0,0E0,0E0,0E0],"parents":[2147483647,0,0,1,1,2,2,3,3,4,4,5,5,6,6,7,7,8,8,10,10,11,11,12,12,13,13],"right_children":[2,4,6,8,10,12,14,16,18,-1,20,22,24,26,-1,-1,-1,-1,-1,-1,-1,-1,-1,-1,-1,-1,-1],"split_conditions":[1.1440001E-1,2.4E1,6.6E1,-1.868368E-1,-1.0305203E-1,4.2837556E-2,3.6629245E-1,8.3826536E-1,4.8937646E-1,-1.03755474E-1,6.3832223E-1,2.894923E-1,2.7623734E-1,4.463869E-1,7.973265E-2,-9.037125E-2,5.1815957E-2,3.600698E-3,1.01634406E-1,-9.091597E-2,2.8859768E-2,-6.8077005E-2,3.7941348E-2,5.2798606E-2,1.08876064E-1,-1.00998715E-1,1.3896371E-2],"split_indices":[3,1,1,3,3,2,3,2,2,0,2,3,2,2,0,0,0,0,0,0,0,0,0,0,0,0,0],"split_type":[0,0,0,0,0,0,0,0,0,0,0,0,0,0,0,0,0,0,0,0,0,0,0,0,0,0,0],"sum_hessian":[8.0087234E1,4.64922E1,3.359503E1,1.4816551E1,3.1675648E1,2.2735382E1,1.085965E1,6.4142003E0,8.40235E0,1.6422235E1,1.5253413E1,2.3286533E0,2.0406729E1,7.0951204E0,3.7645292E0,4.8698034E0,1.5443969E0,4.0481844E0,4.3541665E0,7.436108E0,7.8173056E0,1.0674843E0,1.2611692E0,5.576543E0,1.4830187E1,2.425829E0,4.6692915E0],"tree_param":{"num_deleted":"0","num_feature":"6","num_nodes":"27","size_leaf_vector":"1"}},{"base_weights":[-3.1947896E-3,-5.764186E-1,4.5143273E-1,-2.5070184E-1,-9.756696E-1,7.769253E-1,1.18202254E-1,-8.115518E-1,1.9714491E-1,-1.0162126E-1,-2.3720432E-2,3.4035188E-1,9.9833034E-2,-1.3709292E-1,8.762294E-2,-9.3682155E-2,6.1676344E-3,-2.2109805E-2,1.0142789E-1,9.346022E-2,-1.6988425E-2,-9.906987E-2,3.0711537E-2],"categories":[],"categories_nodes":[],"categories_segments":[],"categories_sizes":[],"default_left":[0,0,0,0,0,0,0,0,0,0,0,0,0,0,0,0,0,0,0,0,0,0,0],"id":21,"left_children":[1,3,5,7,9,11,13,15,17,-1,-1,19,-1,21,-1,-1,-1,-1,-1,-1,-1,-1,-1],"loss_changes":[2.0356108E1,4.2479753E0,4.6335125E0,5.276762E0,2.1330166E-1,1.7731419E0,4.5143166E0,1.0685382E0,4.3702607E0,0E0,0E0,2.8490834E0,0E0,7.0728335E0,0E0,0E0,0E0,0E0,0E0,0E0,0E0,0E0,0E0],"parents":[2147483647,0,0,1,1,2,2,3,3,4,4,5,5,6,6,7,7,8,8,11,11,13,13],"right_children":[2,4,6,8,10,12,14,16,18,-1,-1,20,-1,22,-1,-1,-1,-1,-1,-1,-1,-1,-1],"split_conditions":[1.8276177E-2,3.9E1,5E1,5.625552E-1,9.7537327E-1,2.676008E-1,3.6629245E-1,-3.933017E-2,-1.125487E-1,-1.0162126E-1,-2.3720432E-2,2.6E1,9.9833034E-2,4.463869E-1,8.762294E-2,-9.3682155E-2,6.1676344E-3,-2.2109805E-2,1.0142789E-1,9.346022E-2,-1.6988425E-2,-9.906987E-2,3.0711537E-2],"split_indices":[3,1,1,2,2,2,3,3,3,0,0,1,0,2,0,0,0,0,0,0,0,0,0],"split_type":[0,0,0,0,0,0,0,0,0,0,0,0,0,0,0,0,0,0,0,0,0,0,0],"sum_hessian":[7.611296E1,3.3546932E1,4.2566032E1,1.9371346E1,1.4175588E1,2.0859457E1,2.1706575E1,8.240028E0,1.1131317E1,1.3081287E1,1.0942997E0,7.8728185E0,1.2986638E1,1.6850618E1,4.855957E0,7.14256E0,1.097468E0,7.8452277E0,3.2860897E0,3.252761E0,4.620057E0,5.346447E0,1.1504171E1],"tree_param":{"num_deleted":"0","num_feature":"6","num_nodes":"23","size_leaf_vector":"1"}},{"base_weights":[-2.3432465E-3,-4.2396668E-1,5.6991154E-1,1.14747494E-1,-6.7836684E-1,8.0510795E-1,7.048052E-2,-6.324031E-1,4.773927E-1,-1.01592116E-1,-3.042589E-1,-1.5464829E-1,9.2610574E-1,-8.058085E-2,3.934543E-1,1.646449E-2,-8.656258E-2,-7.0636654E-3,8.9431144E-2,-8.7200575E-2,2.4799978E-2,-6.4388424E-2,3.6591057E-2,4.8761893E-2,1.06043614E-1,-3.1482417E-2,7.9127185E-2],"categories":[],"categories_nodes":[],"categories_segments":[],"categories_sizes":[],"default_left":[0,0,0,0,0,0,0,0,0,0,0,0,0,0,0,0,0,0,0,0,0,0,0,0,0,0,0],"id":22,"left_children":[1,3,5,7,9,11,13,15,17,-1,19,21,23,-1,25,-1,-1,-1,-1,-1,-1,-1,-1,-1,-1,-1,-1],"loss_changes":[1.8027035E1,5.973196E0,3.6665888E0,4.272228E0,3.39892E0,2.6345682E0,3.499349E0,1.1125655E0,2.4473808E0,0E0,5.030707E0,1.0655324E0,6.1351585E-1,0E0,2.7534165E0,0E0,0E0,0E0,0E0,0E0,0E0,0E0,0E0,0E0,0E0,0E0,0E0],"parents":[2147483647,0,0,1,1,2,2,3,3,4,4,5,5,6,6,7,7,8,8,10,10,11,11,12,12,14,14],"right_children":[2,4,6,8,10,12,14,16,18,-1,20,22,24,-1,26,-1,-1,-1,-1,-1,-1,-1,-1,-1,-1,-1,-1],"split_conditions":[1.1440001E-1,2.4E1,6.6E1,-2.340023E-1,-1.0305203E-1,4.2837556E-2,2.2752923E-1,6E0,4.946752E-1,-1.01592116E-1,6.3832223E-1,2.894923E-1,2.7623734E-1,-8.058085E-2,4.3539363E-1,1.646449E-2,-8.656258E-2,-7.0636654E-3,8.9431144E-2,-8.7200575E-2,2.4799978E-2,-6.4388424E-2,3.6591057E-2,4.8761893E-2,1.06043614E-1,-3.1482417E-2,7.9127185E-2],"split_indices":[3,1,1,3,3,2,3,1,2,0,2,3,2,0,2,0,0,0,0,0,0,0,0,0,0,0,0],"split_type":[0,0,0,0,0,0,0,0,0,0,0,0,0,0,0,0,0,0,0,0,0,0,0,0,0,0,0],"sum_hessian":[7.271396E1,4.2016415E1,3.0697546E1,1.3653311E1,2.8363104E1,2.04534E1,1.0244146E1,4.2183886E0,9.434922E0,1.4008121E1,1.4354983E1,2.2587607E0,1.819464E1,2.3562438E0,7.8879023E0,1.021481E0,3.1969075E0,4.435345E0,4.999577E0,6.79275E0,7.5622334E0,1.0422837E0,1.2164772E0,5.3525677E0,1.2842071E1,2.9119887E0,4.9759135E0],"tree_param":{"num_deleted":"0","num_feature":"6","num_nodes":"27","size_leaf_vector":"1"}},{"base_weights":[-3.156031E-3,-5.3937167E-1,4.1097307E-1,-2.231129E-1,-9.5030457E-1,9.6155964E-2,2.1247098E-1,-7.7155167E-1,1.98979E-1,-9.9586E-2,-2.1807017E-2,-1.8216571E-1,6.663246E-1,-9.0159416E-2,6.3082553E-3,-7.5539194E-2,4.9841832E-2,-7.310942E-2,3.3011224E-2,2.2593366E-2,8.847972E-2],"categories":[],"categories_nodes":[],"categories_segments":[],"categories_sizes":[],"default_left":[0,0,0,0,0,0,0,0,0,0,0,0,0,0,0,0,0,0,0,0,0],"id":23,"left_children":[1,3,5,7,9,-1,11,13,15,-1,-1,17,19,-1,-1,-1,-1,-1,-1,-1,-1],"loss_changes":[1.5830673E1,3.824955E0,4.192325E0,4.5195394E0,2.2323608E-1,0E0,5.647131E0,9.6941376E-1,3.6494431E0,0E0,0E0,5.1027107E0,1.2013369E0,0E0,0E0,0E0,0E0,0E0,0E0,0E0,0E0],"parents":[2147483647,0,0,1,1,2,2,3,3,4,4,6,6,7,7,8,8,11,11,12,12],"right_children":[2,4,6,8,10,-1,12,14,16,-1,-1,18,20,-1,-1,-1,-1,-1,-1,-1,-1],"split_conditions":[1.8276177E-2,3.9E1,2.9E1,5.625552E-1,9.7537327E-1,9.6155964E-2,2.567581E-1,-3.933017E-2,-3.005884E-1,-9.9586E-2,-2.1807017E-2,5.5876595E-1,2.967867E-1,-9.0159416E-2,6.3082553E-3,-7.5539194E-2,4.9841832E-2,-7.310942E-2,3.3011224E-2,2.2593366E-2,8.847972E-2],"split_indices":[3,1,1,2,2,0,3,3,3,0,0,2,2,0,0,0,0,0,0,0,0],"split_type":[0,0,0,0,0,0,0,0,0,0,0,0,0,0,0,0,0,0,0,0,0],"sum_hessian":[6.9291046E1,3.006298E1,3.922807E1,1.786037E1,1.220261E1,9.376455E0,2.9851612E1,7.4075537E0,1.0452817E1,1.1148957E1,1.0536526E0,1.6287695E1,1.3563918E1,6.3395724E0,1.0679812E0,2.1327243E0,8.320093E0,7.65639E0,8.631305E0,5.172163E0,8.391755E0],"tree_param":{"num_deleted":"0","num_feature":"6","num_nodes":"21","size_leaf_vector":"1"}},{"base_weights":[-4.1666203E-3,-7.266453E-1,2.8055772E-1,7.544456E-2,-8.917704E-1,5.2973473E-1,-1.8085884E-1,-6.098935E-2,6.0599953E-2,-4.166661E-1,-9.8718606E-2,2.4186473E-1,8.7105334E-1,-8.3039796E-1,3.1024042E-1,-7.220637E-2,6.5821735E-4,-2.2069475E-2,8.508136E-2,-7.673615E-3,9.863202E-2,-2.891531E-2,-1.0316509E-1,-3.2607358E-2,7.2254494E-2],"categories":[],"categories_nodes":[],"categories_segments":[],"categories_sizes":[],"default_left":[0,0,0,0,0,0,0,0,0,0,0,0,0,0,0,0,0,0,0,0,0,0,0,0,0],"id":24,"left_children":[1,3,5,7,9,11,13,-1,-1,15,-1,17,19,21,23,-1,-1,-1,-1,-1,-1,-1,-1,-1,-1],"loss_changes":[1.4063062E1,2.6266766E0,5.7352076E0,1.904417E0,3.1866837E-1,2.9437227E0,5.981893E0,0E0,0E0,5.7652557E-1,0E0,5.4832754E0,1.6383848E0,5.729165E-1,3.1075733E0,0E0,0E0,0E0,0E0,0E0,0E0,0E0,0E0,0E0,0E0],"parents":[2147483647,0,0,1,1,2,2,3,3,4,4,5,5,6,6,9,9,11,11,12,12,13,13,14,14],"right_children":[2,4,6,8,10,12,14,-1,-1,16,-1,18,20,22,24,-1,-1,-1,-1,-1,-1,-1,-1,-1,-1],"split_conditions":[-1.330386E-1,1.3E1,5.9E1,6.1852705E-1,2.1E1,1.4751646E-1,1.9970521E-1,-6.098935E-2,6.0599953E-2,-2.3765704E-1,-9.8718606E-2,6.6248393E-1,2.8311275E-2,6.6E1,4.3539363E-1,-7.220637E-2,6.5821735E-4,-2.2069475E-2,8.508136E-2,-7.673615E-3,9.863202E-2,-2.891531E-2,-1.0316509E-1,-3.2607358E-2,7.2254494E-2],"split_indices":[3,1,1,2,1,3,3,0,0,3,0,2,2,1,2,0,0,0,0,0,0,0,0,0,0],"split_type":[0,0,0,0,0,0,0,0,0,0,0,0,0,0,0,0,0,0,0,0,0,0,0,0,0],"sum_hessian":[6.637339E1,1.832421E1,4.804918E1,3.2210715E0,1.5103137E1,3.1104092E1,1.6945086E1,1.3402635E0,1.880808E0,3.4234676E0,1.1679669E1,1.7800049E1,1.3304043E1,6.998204E0,9.946881E0,1.5784916E0,1.844976E0,1.0478289E1,7.32176E0,1.4787983E0,1.1825244E1,2.5573347E0,4.44087E0,3.9932303E0,5.9536514E0],"tree_param":{"num_deleted":"0","num_feature":"6","num_nodes":"25","size_leaf_vector":"1"}},{"base_weights":[-5.661861E-3,-3.8122395E-1,5.040903E-1,3.903002E-1,-5.4553324E-1,7.437525E-1,1.7524885E-2,-5.511559E-2,6.4453787E-1,-8.3980477E-1,-1.34349E-1,2.4270564E-1,1.0291429E-1,-3.626738E-1,6.93224E-2,1.3866307E-2,8.82267E-2,-9.780655E-2,-5.4994434E-2,-7.7424176E-2,2.5569607E-2,-2.6942952E-2,7.605859E-2,-6.506592E-2,3.902655E-2],"categories":[],"categories_nodes":[],"categories_segments":[],"categories_sizes":[],"default_left":[0,0,0,0,0,0,0,0,0,0,0,0,0,0,0,0,0,0,0,0,0,0,0,0,0],"id":25,"left_children":[1,3,5,7,9,11,13,-1,15,17,19,21,-1,23,-1,-1,-1,-1,-1,-1,-1,-1,-1,-1,-1],"loss_changes":[1.2537891E1,4.9921536E0,3.2272534E0,2.0791147E0,3.6984549E0,2.4088984E0,2.870287E0,0E0,6.150758E-1,1.9025326E-1,3.7744312E0,2.341523E0,0E0,1.8108183E0,0E0,0E0,0E0,0E0,0E0,0E0,0E0,0E0,0E0,0E0,0E0],"parents":[2147483647,0,0,1,1,2,2,3,3,4,4,5,5,6,6,8,8,9,9,10,10,11,11,13,13],"right_children":[2,4,6,8,10,12,14,-1,16,18,20,22,-1,24,-1,-1,-1,-1,-1,-1,-1,-1,-1,-1,-1],"split_conditions":[1.1440001E-1,1.3E1,6.6E1,-2.9575324E-1,7.0264024E-1,2.7623734E-1,3.6629245E-1,-5.511559E-2,4.549189E-1,-4.57216E-2,-1.7727342E-1,2.7044722E-1,1.0291429E-1,8.080793E-1,6.93224E-2,1.3866307E-2,8.82267E-2,-9.780655E-2,-5.4994434E-2,-7.7424176E-2,2.5569607E-2,-2.6942952E-2,7.605859E-2,-6.506592E-2,3.902655E-2],"split_indices":[3,1,1,3,2,2,3,0,2,3,3,3,0,2,0,0,0,0,0,0,0,0,0,0,0],"split_type":[0,0,0,0,0,0,0,0,0,0,0,0,0,0,0,0,0,0,0,0,0,0,0,0,0],"sum_hessian":[6.3487514E1,3.6700443E1,2.678707E1,6.202207E0,3.0498236E1,1.7592934E1,9.194137E0,1.0704383E0,5.131769E0,1.716872E1,1.3329515E1,7.0558076E0,1.0537126E1,6.180044E0,3.0140922E0,2.1467922E0,2.9849768E0,1.0016623E1,7.152098E0,4.674957E0,8.654558E0,3.788792E0,3.2670157E0,4.5685134E0,1.6115311E0],"tree_param":{"num_deleted":"0","num_feature":"6","num_nodes":"25","size_leaf_vector":"1"}},{"base_weights":[-4.63534E-3,-6.2320673E-1,2.8331855E-1,-9.5391504E-2,-9.4704084E-2,6.2281203E-1,-7.937335E-2,-6.982626E-2,3.838643E-1,1.8095537E-1,8.810965E-2,-5.613948E-1,3.7276226E-1,-2.7010022E-2,7.695806E-2,-3.60008E-2,6.865638E-2,-1.8547697E-2,-9.973975E-2,-2.787498E-2,6.7581244E-2],"categories":[],"categories_nodes":[],"categories_segments":[],"categories_sizes":[],"default_left":[0,0,0,0,0,0,0,0,0,0,0,0,0,0,0,0,0,0,0,0,0],"id":26,"left_children":[1,3,5,7,-1,9,11,-1,13,15,-1,17,19,-1,-1,-1,-1,-1,-1,-1,-1],"loss_changes":[1.1195688E1,3.3218598E0,5.33181E0,2.782557E0,0E0,2.382328E0,4.922949E0,0E0,1.5936435E0,2.8386216E0,0E0,1.5961661E0,2.5105147E0,0E0,0E0,0E0,0E0,0E0,0E0,0E0,0E0],"parents":[2147483647,0,0,1,1,2,2,3,3,5,5,6,6,8,8,9,9,11,11,12,12],"right_children":[2,4,6,8,-1,10,12,-1,14,16,-1,18,20,-1,-1,-1,-1,-1,-1,-1,-1],"split_conditions":[-6.888759E-2,2.4E1,5E1,6.1852705E-1,-9.4704084E-2,2.967867E-1,1.9970521E-1,-6.982626E-2,-2.6085746E-1,1.4751646E-1,8.810965E-2,6.6E1,2.967867E-1,-2.7010022E-2,7.695806E-2,-3.60008E-2,6.865638E-2,-1.8547697E-2,-9.973975E-2,-2.787498E-2,6.7581244E-2],"split_indices":[3,1,1,2,0,2,3,0,3,3,0,1,2,0,0,0,0,0,0,0,0],"split_type":[0,0,0,0,0,0,0,0,0,0,0,0,0,0,0,0,0,0,0,0,0],"sum_hessian":[6.0863464E1,1.8963198E1,4.190027E1,7.702882E0,1.1260316E1,2.127183E1,2.0628439E1,3.2090917E0,4.4937906E0,8.474609E0,1.2797219E1,9.867283E0,1.0761155E1,1.7783768E0,2.7154136E0,4.233282E0,4.2413273E0,6.064191E0,3.803092E0,3.4418607E0,7.3192945E0],"tree_param":{"num_deleted":"0","num_feature":"6","num_nodes":"21","size_leaf_vector":"1"}},{"base_weights":[-5.7365177E-3,-4.8111498E-1,3.44001E-1,-2.143541E-1,-9.7043425E-2,9.517731E-2,1.6344623E-1,-5.0631607E-1,5.656146E-1,-3.4795502E-1,4.4605675E-1,-8.732141E-2,-1.1078879E-2,-1.5540003E-2,8.7522365E-2,-7.208959E-2,6.695567E-2,2.1118207E-2,9.0113394E-2],"categories":[],"categories_nodes":[],"categories_segments":[],"categories_sizes":[],"default_left":[0,0,0,0,0,0,0,0,0,0,0,0,0,0,0,0,0,0,0],"id":27,"left_children":[1,3,5,7,-1,-1,9,11,13,15,17,-1,-1,-1,-1,-1,-1,-1,-1],"loss_changes":[1.0010668E1,3.1226974E0,3.6522465E0,4.339207E0,0E0,0E0,4.1961293E0,1.8590906E0,1.323563E0,4.4721985E0,1.7813401E0,0E0,0E0,0E0,0E0,0E0,0E0,0E0,0E0],"parents":[2147483647,0,0,1,1,2,2,3,3,6,6,7,7,8,8,9,9,10,10],"right_children":[2,4,6,8,-1,-1,10,12,14,16,18,-1,-1,-1,-1,-1,-1,-1,-1],"split_conditions":[1.8276177E-2,4.5E1,2.7E1,8.3364314E-1,-9.7043425E-2,9.517731E-2,3.4994495E-1,-1.7183992E-1,-2.558384E-1,3.6629245E-1,2.9357067E-1,-8.732141E-2,-1.1078879E-2,-1.5540003E-2,8.7522365E-2,-7.208959E-2,6.695567E-2,2.1118207E-2,9.0113394E-2],"split_indices":[3,1,1,2,0,0,2,3,3,3,3,0,0,0,0,0,0,0,0],"split_type":[0,0,0,0,0,0,0,0,0,0,0,0,0,0,0,0,0,0,0],"sum_hessian":[5.821629E1,2.4516605E1,3.3699684E1,1.679732E1,7.719285E0,6.7401237E0,2.695956E1,1.247752E1,4.3198004E0,9.513349E0,1.7446213E1,5.846492E0,6.6310287E0,1.4473356E0,2.8724647E0,7.1750445E0,2.3383038E0,1.2472801E1,4.973411E0],"tree_param":{"num_deleted":"0","num_feature":"6","num_nodes":"19","size_leaf_vector":"1"}},{"base_weights":[-4.126624E-3,-3.413125E-1,4.518723E-1,3.8921824E-1,-5.0289243E-1,6.9714075E-1,-2.4643162E-2,-2.9847536E-2,6.085481E-1,-7.998221E-1,-1.0806843E-1,-1.9699821E-2,8.359331E-1,-3.6841854E-1,6.2224716E-1,1.273106E-2,7.6830946E-2,-5.2436054E-2,-9.7762614E-2,-7.2253615E-2,2.3646718E-2,3.9728995E-2,1.0012907E-1,-6.3211516E-2,3.4343448E-2,7.493504E-2,1.7753238E-2],"categories":[],"categories_nodes":[],"categories_segments":[],"categories_sizes":[],"default_left":[0,0,0,0,0,0,0,0,0,0,0,0,0,0,0,0,0,0,0,0,0,0,0,0,0,0,0],"id":28,"left_children":[1,3,5,7,9,11,13,-1,15,17,19,-1,21,23,25,-1,-1,-1,-1,-1,-1,-1,-1,-1,-1,-1,-1],"loss_changes":[8.92128E0,4.132311E0,2.9003892E0,1.1777371E0,3.1663318E0,2.1900616E0,2.308261E0,0E0,3.1244814E-1,2.5534248E-1,2.9369738E0,0E0,6.4075184E-1,1.4809042E0,7.13613E-2,0E0,0E0,0E0,0E0,0E0,0E0,0E0,0E0,0E0,0E0,0E0,0E0],"parents":[2147483647,0,0,1,1,2,2,3,3,4,4,5,5,6,6,8,8,9,9,10,10,12,12,13,13,14,14],"right_children":[2,4,6,8,10,12,14,-1,16,18,20,-1,22,24,26,-1,-1,-1,-1,-1,-1,-1,-1,-1,-1,-1,-1],"split_conditions":[1.1440001E-1,1.3E1,6.6E1,-2.8228748E-1,7.0264024E-1,4.2837556E-2,3.6629245E-1,-2.9847536E-2,2.967867E-1,4.1E1,-1.7727342E-1,-1.9699821E-2,2.7623734E-1,8.080793E-1,8.2E1,1.273106E-2,7.6830946E-2,-5.2436054E-2,-9.7762614E-2,-7.2253615E-2,2.3646718E-2,3.9728995E-2,1.0012907E-1,-6.3211516E-2,3.4343448E-2,7.493504E-2,1.7753238E-2],"split_indices":[3,1,1,3,2,2,3,0,2,1,3,0,2,2,1,0,0,0,0,0,0,0,0,0,0,0,0],"split_type":[0,0,0,0,0,0,0,0,0,0,0,0,0,0,0,0,0,0,0,0,0,0,0,0,0,0,0],"sum_hessian":[5.60191E1,3.234976E1,2.3669342E1,5.6040506E0,2.6745707E1,1.5320627E1,8.348716E0,1.2678725E0,4.336178E0,1.4679863E1,1.2065844E1,2.0022433E0,1.3318384E1,5.7326856E0,2.61603E0,1.5285918E0,2.8075862E0,7.3076463E0,7.3722167E0,3.9406664E0,8.125177E0,4.5777164E0,8.740667E0,4.2648444E0,1.4678411E0,1.5017915E0,1.1142385E0],"tree_param":{"num_deleted":"0","num_feature":"6","num_nodes":"27","size_leaf_vector":"1"}},{"base_weights":[-2.9836877E-3,-6.475625E-1,2.2323291E-1,-7.8849095E-1,3.0500809E-2,5.255606E-1,-1.168622E-1,-9.4470926E-2,-2.801925E-1,1.1813641E-1,7.6165587E-1,-4.2256683E-1,5.0387317E-1,2.8304143E-2,-7.1640514E-2,-3.7964325E-2,6.420978E-2,2.6184889E-3,8.195188E-2,-6.321478E-2,1.1633629E-2,-9.65155E-3,8.518506E-2],"categories":[],"categories_nodes":[],"categories_segments":[],"categories_sizes":[],"default_left":[0,0,0,0,0,0,0,0,0,0,0,0,0,0,0,0,0,0,0,0,0,0,0],"id":29,"left_children":[1,3,5,7,-1,9,11,-1,13,15,17,19,21,-1,-1,-1,-1,-1,-1,-1,-1,-1,-1],"loss_changes":[8.16567E0,2.1933079E0,4.3245854E0,7.63669E-1,0E0,2.0389051E0,4.0708714E0,0E0,1.3000746E0,2.6702414E0,5.6703377E-1,1.6734791E0,1.5790855E0,0E0,0E0,0E0,0E0,0E0,0E0,0E0,0E0,0E0,0E0],"parents":[2147483647,0,0,1,1,2,2,3,3,5,5,6,6,8,8,9,9,10,10,11,11,12,12],"right_children":[2,4,6,8,-1,10,12,-1,14,16,18,20,22,-1,-1,-1,-1,-1,-1,-1,-1,-1,-1],"split_conditions":[-1.330386E-1,9.5302004E-1,5E1,-1.9285434E-1,3.0500809E-2,2.967867E-1,2.9357067E-1,-9.4470926E-2,2.1E1,1.4751646E-1,-1.0305203E-1,8.080793E-1,2.967867E-1,2.8304143E-2,-7.1640514E-2,-3.7964325E-2,6.420978E-2,2.6184889E-3,8.195188E-2,-6.321478E-2,1.1633629E-2,-9.65155E-3,8.518506E-2],"split_indices":[3,2,1,3,0,2,3,0,1,3,3,2,2,0,0,0,0,0,0,0,0,0,0],"split_type":[0,0,0,0,0,0,0,0,0,0,0,0,0,0,0,0,0,0,0,0,0,0,0],"sum_hessian":[5.4009064E1,1.3546697E1,4.0462368E1,1.1950869E1,1.5958272E0,2.1131859E1,1.933051E1,8.484658E0,3.466211E0,8.303344E0,1.2828515E1,1.3165773E1,6.1647353E0,1.6660984E0,1.8001127E0,4.3993044E0,3.9040394E0,1.0416076E0,1.1786907E1,9.354683E0,3.8110898E0,2.5271366E0,3.637599E0],"tree_param":{"num_deleted":"0","num_feature":"6","num_nodes":"23","size_leaf_vector":"1"}},{"base_weights":[-2.355878E-3,-4.4297522E-1,3.1264102E-1,-1.8709442E-1,-9.464835E-2,8.740139E-2,1.3128982E-1,-4.6934488E-1,5.4117906E-1,-1.8690191E-1,5.415423E-1,-8.3176605E-2,-1.1871382E-2,-1.0986055E-2,8.129823E-2,-4.4082906E-2,6.885927E-2,6.487741E-2,-2.267317E-2],"categories":[],"categories_nodes":[],"categories_segments":[],"categories_sizes":[],"default_left":[0,0,0,0,0,0,0,0,0,0,0,0,0,0,0,0,0,0,0],"id":30,"left_children":[1,3,5,7,-1,-1,9,11,13,15,17,-1,-1,-1,-1,-1,-1,-1,-1],"loss_changes":[7.497049E0,2.7237802E0,3.0923703E0,3.5788975E0,0E0,0E0,3.3630176E0,1.4506736E0,9.7096705E-1,3.597315E0,1.0674217E0,0E0,0E0,0E0,0E0,0E0,0E0,0E0,0E0],"parents":[2147483647,0,0,1,1,2,2,3,3,6,6,7,7,8,8,9,9,10,10],"right_children":[2,4,6,8,-1,-1,10,12,14,16,18,-1,-1,-1,-1,-1,-1,-1,-1],"split_conditions":[1.8276177E-2,4.5E1,2.9E1,8.3364314E-1,-9.464835E-2,8.740139E-2,2.567581E-1,-1.7183992E-1,-2.558384E-1,8.080793E-1,8.7E1,-8.3176605E-2,-1.1871382E-2,-1.0986055E-2,8.129823E-2,-4.4082906E-2,6.885927E-2,6.487741E-2,-2.267317E-2],"split_indices":[3,1,1,2,0,0,3,3,3,2,1,0,0,0,0,0,0,0,0],"split_type":[0,0,0,0,0,0,0,0,0,0,0,0,0,0,0,0,0,0,0],"sum_hessian":[5.2017937E1,2.1515564E1,3.050237E1,1.5175181E1,6.340383E0,6.5151763E0,2.3987194E1,1.1192818E1,3.982363E0,1.3815961E1,1.0171234E1,4.82912E0,6.363698E0,1.3484006E0,2.6339624E0,1.1094584E1,2.7213762E0,9.061955E0,1.1092783E0],"tree_param":{"num_deleted":"0","num_feature":"6","num_nodes":"19","size_leaf_vector":"1"}},{"base_weights":[-1.6059552E-3,-4.2270702E-1,2.9559118E-1,-1.7518906E-1,-9.302411E-2,5.33421E-1,-1.1267747E-1,-4.4382638E-1,5.1015466E-1,3.3905614E-2,6.836072E-1,-3.8904387E-1,6.3703823E-1,-8.1180125E-2,-1.0858346E-2,-1.0381314E-2,7.710548E-2,-3.612886E-2,6.7467846E-2,2.129799E-2,8.426442E-2,-6.439825E-2,4.3624613E-2,7.8922324E-2,1.24491835E-2],"categories":[],"categories_nodes":[],"categories_segments":[],"categories_sizes":[],"default_left":[0,0,0,0,0,0,0,0,0,0,0,0,0,0,0,0,0,0,0,0,0,0,0,0,0],"id":31,"left_children":[1,3,5,7,-1,9,11,13,15,17,19,21,23,-1,-1,-1,-1,-1,-1,-1,-1,-1,-1,-1,-1],"loss_changes":[6.533912E0,2.5504863E0,3.0323277E0,3.1263375E0,0E0,1.4409981E0,2.75353E0,1.3737307E0,8.6505806E-1,1.6526699E0,9.39744E-1,2.2706614E0,1.8539357E-1,0E0,0E0,0E0,0E0,0E0,0E0,0E0,0E0,0E0,0E0,0E0,0E0],"parents":[2147483647,0,0,1,1,2,2,3,3,5,5,6,6,7,7,8,8,9,9,10,10,11,11,12,12],"right_children":[2,4,6,8,-1,10,12,14,16,18,20,22,24,-1,-1,-1,-1,-1,-1,-1,-1,-1,-1,-1,-1],"split_conditions":[1.8276177E-2,4.5E1,6.2E1,8.3364314E-1,-9.302411E-2,1.506081E-1,3.6629245E-1,-1.7183992E-1,-2.558384E-1,2.567581E-1,8.119542E-2,8.080793E-1,8.2E1,-8.1180125E-2,-1.0858346E-2,-1.0381314E-2,7.710548E-2,-3.612886E-2,6.7467846E-2,2.129799E-2,8.426442E-2,-6.439825E-2,4.3624613E-2,7.8922324E-2,1.24491835E-2],"split_indices":[3,1,1,2,0,2,3,3,3,3,3,2,1,0,0,0,0,0,0,0,0,0,0,0,0],"split_type":[0,0,0,0,0,0,0,0,0,0,0,0,0,0,0,0,0,0,0,0,0,0,0,0,0],"sum_hessian":[5.0210247E1,2.0599846E1,2.9610403E1,1.4751098E1,5.8487473E0,1.8517063E1,1.109334E1,1.0850414E1,3.9006834E0,4.5637865E0,1.3953278E1,8.456948E0,2.6363919E0,4.495003E0,6.3554115E0,1.3428032E0,2.55788E0,3.0926027E0,1.4711838E0,4.1150556E0,9.838222E0,6.628913E0,1.828035E0,1.6165874E0,1.0198046E0],"tree_param":{"num_deleted":"0","num_feature":"6","num_nodes":"25","size_leaf_vector":"1"}},{"base_weights":[2.3545272E-4,-5.9136903E-1,1.9353607E-1,-7.719082E-2,-9.118366E-2,5.331122E-1,-5.4692324E-2,-4.8707017E-1,5.7735123E-2,4.12797E-3,7.1371996E-1,-4.381387E-1,3.0961737E-1,-7.016602E-2,5.0054565E-3,-4.5978E-2,5.1940303E-2,1.3407456E-2,9.1682605E-2,-6.5196894E-2,9.322611E-3,-1.25178145E-2,6.9176786E-2],"categories":[],"categories_nodes":[],"categories_segments":[],"categories_sizes":[],"default_left":[0,0,0,0,0,0,0,0,0,0,0,0,0,0,0,0,0,0,0,0,0,0,0],"id":32,"left_children":[1,3,5,7,-1,9,11,13,-1,15,17,19,21,-1,-1,-1,-1,-1,-1,-1,-1,-1,-1],"loss_changes":[5.7753735E0,1.979043E0,3.2377002E0,1.8554864E0,0E0,1.5416803E0,3.3341928E0,5.135471E-1,0E0,1.4628975E0,1.2953315E0,1.3753293E0,2.1348753E0,0E0,0E0,0E0,0E0,0E0,0E0,0E0,0E0,0E0,0E0],"parents":[2147483647,0,0,1,1,2,2,3,3,5,5,6,6,7,7,9,9,10,10,11,11,12,12],"right_children":[2,4,6,8,-1,10,12,14,-1,16,18,20,22,-1,-1,-1,-1,-1,-1,-1,-1,-1,-1],"split_conditions":[-1.330386E-1,2.1E1,4.3E1,8.2887125E-1,-9.118366E-2,1.7208923E-1,1.7562132E-1,-1.9285434E-1,5.7735123E-2,1.4751646E-1,-3.933017E-2,7.8943217E-1,4.463869E-1,-7.016602E-2,5.0054565E-3,-4.5978E-2,5.1940303E-2,1.3407456E-2,9.1682605E-2,-6.5196894E-2,9.322611E-3,-1.25178145E-2,6.9176786E-2],"split_indices":[3,1,1,2,0,2,3,3,0,3,3,2,2,0,0,0,0,0,0,0,0,0,0],"split_type":[0,0,0,0,0,0,0,0,0,0,0,0,0,0,0,0,0,0,0,0,0,0,0],"sum_hessian":[4.8501976E1,1.1437553E1,3.7064423E1,4.8679614E0,6.5695915E0,1.5167557E1,2.1896868E1,3.1507797E0,1.7171818E0,4.1208386E0,1.1046718E1,1.0569506E1,1.1327361E1,2.0324547E0,1.118325E0,2.2251823E0,1.8956566E0,3.2971334E0,7.749584E0,7.374793E0,3.1947126E0,5.6132584E0,5.714103E0],"tree_param":{"num_deleted":"0","num_feature":"6","num_nodes":"23","size_leaf_vector":"1"}},{"base_weights":[4.7232414E-4,-3.4950042E-1,3.1036758E-1,3.2248095E-1,-5.263589E-1,5.606896E-1,-7.1041234E-2,-1.7592065E-2,6.0238886E-1,-7.9468435E-1,-1.21765554E-1,2.0889637E-1,8.0926824E-1,-3.981158E-1,4.9540213E-1,1.7846726E-2,7.079238E-2,-2.2850515E-2,-8.3137736E-2,-5.452169E-2,3.1644415E-2,8.701254E-2,-1.9866174E-2,1.1503999E-2,9.2939146E-2,-6.779197E-2,3.814197E-2,-2.850569E-3,7.9156764E-2],"categories":[],"categories_nodes":[],"categories_segments":[],"categories_sizes":[],"default_left":[0,0,0,0,0,0,0,0,0,0,0,0,0,0,0,0,0,0,0,0,0,0,0,0,0,0,0,0,0],"id":33,"left_children":[1,3,5,7,9,11,13,-1,15,17,19,21,23,25,27,-1,-1,-1,-1,-1,-1,-1,-1,-1,-1,-1,-1,-1,-1],"loss_changes":[5.279265E0,2.886664E0,2.5046096E0,8.5697025E-1,1.909224E0,1.2037868E0,2.256876E0,0E0,3.799534E-2,3.706932E-2,1.7588706E0,2.287792E0,6.3118935E-1,1.9167128E0,7.23125E-1,0E0,0E0,0E0,0E0,0E0,0E0,0E0,0E0,0E0,0E0,0E0,0E0,0E0,0E0],"parents":[2147483647,0,0,1,1,2,2,3,3,4,4,5,5,6,6,8,8,9,9,10,10,11,11,12,12,13,13,14,14],"right_children":[2,4,6,8,10,12,14,-1,16,18,20,22,24,26,28,-1,-1,-1,-1,-1,-1,-1,-1,-1,-1,-1,-1,-1,-1],"split_conditions":[5.7310574E-2,1.3E1,6.2E1,4.3108687E-1,7.4677664E-1,3.4994495E-1,3.2848814E-1,-1.7592065E-2,-1.9698249E-1,2E1,-1.3635464E-1,2.6E1,8.119542E-2,8.080793E-1,1E0,1.7846726E-2,7.079238E-2,-2.2850515E-2,-8.3137736E-2,-5.452169E-2,3.1644415E-2,8.701254E-2,-1.9866174E-2,1.1503999E-2,9.2939146E-2,-6.779197E-2,3.814197E-2,-2.850569E-3,7.9156764E-2],"split_indices":[3,1,1,2,2,2,3,0,3,1,3,1,3,2,4,0,0,0,0,0,0,0,0,0,0,0,0,0,0],"split_type":[0,0,0,0,0,0,0,0,0,0,0,0,0,0,0,0,0,0,0,0,0,0,0,0,0,0,0,0,0],"sum_hessian":[4.667688E1,2.1860947E1,2.4815935E1,4.3832426E0,1.7477703E1,1.4698878E1,1.0117056E1,1.7099774E0,2.6732655E0,9.928793E0,7.5489097E0,6.847925E0,7.8509536E0,6.6020684E0,3.5149872E0,1.0692568E0,1.6040086E0,1.0441931E0,8.8846E0,3.7149158E0,3.833994E0,2.1785069E0,4.6694183E0,1.4468507E0,6.404103E0,4.9541845E0,1.6478842E0,1.5958058E0,1.9191816E0],"tree_param":{"num_deleted":"0","num_feature":"6","num_nodes":"29","size_leaf_vector":"1"}},{"base_weights":[4.046654E-3,-3.766051E-1,2.66307E-1,-1.3666917E-1,-9.0427116E-2,8.581764E-1,1.1247728E-1,-6.43443E-1,1.940939E-1,2.6709897E-2,9.3344025E-2,-3.4234357E-1,3.8599682E-1,-1.5908413E-3,-7.779311E-2,-5.8698256E-2,3.8117383E-2,-6.6393666E-2,5.4909438E-2,4.75361E-2,-4.24338E-2],"categories":[],"categories_nodes":[],"categories_segments":[],"categories_sizes":[],"default_left":[0,0,0,0,0,0,0,0,0,0,0,0,0,0,0,0,0,0,0,0,0],"id":34,"left_children":[1,3,5,7,-1,9,11,13,15,-1,-1,17,19,-1,-1,-1,-1,-1,-1,-1,-1],"loss_changes":[4.7081966E0,2.3127046E0,2.4450088E0,2.5396776E0,0E0,1.4400482E-4,3.0315742E0,4.8733854E-1,1.6097375E0,0E0,0E0,3.0256977E0,1.2896962E0,0E0,0E0,0E0,0E0,0E0,0E0,0E0,0E0],"parents":[2147483647,0,0,1,1,2,2,3,3,5,5,6,6,7,7,8,8,11,11,12,12],"right_children":[2,4,6,8,-1,10,12,14,16,-1,-1,18,20,-1,-1,-1,-1,-1,-1,-1,-1],"split_conditions":[1.8276177E-2,4.5E1,2.7E1,5.625552E-1,-9.0427116E-2,1.7173E4,3.4994495E-1,8E0,-3.005884E-1,2.6709897E-2,9.3344025E-2,3.6629245E-1,4.6253E4,-1.5908413E-3,-7.779311E-2,-5.8698256E-2,3.8117383E-2,-6.6393666E-2,5.4909438E-2,4.75361E-2,-4.24338E-2],"split_indices":[3,1,1,2,0,0,2,1,3,0,0,3,0,0,0,0,0,0,0,0,0],"split_type":[0,0,0,0,0,0,0,0,0,0,0,0,0,0,0,0,0,0,0,0,0],"sum_hessian":[4.5157578E1,1.824308E1,2.6914497E1,1.3406154E1,4.836927E0,4.6076255E0,2.2306871E1,4.9210734E0,8.48508E0,1.0342301E0,3.5733955E0,8.282585E0,1.4024287E1,1.0658765E0,3.855197E0,1.2265431E0,7.258537E0,6.274293E0,2.0082917E0,1.3003617E1,1.0206698E0],"tree_param":{"num_deleted":"0","num_feature":"6","num_nodes":"21","size_leaf_vector":"1"}},{"base_weights":[1.8130345E-3,-2.1343656E-1,4.5343846E-1,2.9309094E-1,-4.2267483E-1,5.696143E-1,-4.159197E-2,-2.573937E-1,6.0965824E-1,-7.942891E-2,-1.4020443E-1,6.818406E-2,8.028195E-1,-6.903928E-2,4.1837063E-2,3.0282715E-3,8.051288E-2,1.6263356E-2,-8.066069E-2,4.9941715E-2,-4.8466083E-2,4.1057296E-2,9.144851E-2],"categories":[],"categories_nodes":[],"categories_segments":[],"categories_sizes":[],"default_left":[0,0,0,0,0,0,0,0,0,0,0,0,0,0,0,0,0,0,0,0,0,0,0],"id":35,"left_children":[1,3,5,7,9,11,-1,13,15,-1,17,19,21,-1,-1,-1,-1,-1,-1,-1,-1,-1,-1],"loss_changes":[4.456917E0,3.4152164E0,1.7313879E0,1.8418396E0,2.2385018E0,1.5209455E0,0E0,1.5275115E0,7.04437E-1,0E0,2.942998E0,1.5223504E0,2.3316383E-2,0E0,0E0,0E0,0E0,0E0,0E0,0E0,0E0,0E0,0E0],"parents":[2147483647,0,0,1,1,2,2,3,3,4,4,5,5,7,7,8,8,10,10,11,11,12,12],"right_children":[2,4,6,8,10,12,-1,14,16,-1,18,20,22,-1,-1,-1,-1,-1,-1,-1,-1,-1,-1],"split_conditions":[1.8135302E-1,2.2E1,8.7E1,-1.868368E-1,5.738413E-1,2.1308501E-1,-4.159197E-2,8.2887125E-1,2.0106515E-1,-7.942891E-2,6.2E1,5.9E1,4.463869E-1,-6.903928E-2,4.1837063E-2,3.0282715E-3,8.051288E-2,1.6263356E-2,-8.066069E-2,4.9941715E-2,-4.8466083E-2,4.1057296E-2,9.144851E-2],"split_indices":[3,1,1,3,2,2,0,2,2,0,1,1,2,0,0,0,0,0,0,0,0,0,0],"split_type":[0,0,0,0,0,0,0,0,0,0,0,0,0,0,0,0,0,0,0,0,0,0,0],"sum_hessian":[4.3851746E1,3.0054733E1,1.3797009E1,8.668685E0,2.138605E1,1.2474747E1,1.322263E0,3.2332501E0,5.4354353E0,8.4531975E0,1.2932851E1,4.370284E0,8.104463E0,1.9573939E0,1.2758563E0,1.6625508E0,3.7728844E0,9.411755E0,3.521097E0,2.5094728E0,1.8608111E0,2.8322961E0,5.2721667E0],"tree_param":{"num_deleted":"0","num_feature":"6","num_nodes":"23","size_leaf_vector":"1"}},{"base_weights":[1.8816785E-3,-5.4625183E-1,1.7114644E-1,-7.0919275E-1,2.9581437E-2,3.8243094E-1,-2.0050675E-1,-8.8588305E-2,-2.1330145E-1,1.7143878E-1,7.342162E-1,-5.351473E-1,3.5050383E-1,2.4553562E-2,-6.1288547E-2,-2.6885215E-2,5.6418996E-2,1.3266859E-2,8.1706606E-2,-7.2291665E-2,-5.6156307E-3,-4.6472024E-2,6.3836366E-2],"categories":[],"categories_nodes":[],"categories_segments":[],"categories_sizes":[],"default_left":[0,0,0,0,0,0,0,0,0,0,0,0,0,0,0,0,0,0,0,0,0,0,0],"id":36,"left_children":[1,3,5,7,-1,9,11,-1,13,15,17,19,21,-1,-1,-1,-1,-1,-1,-1,-1,-1,-1],"loss_changes":[4.124184E0,1.6489246E0,2.7429767E0,6.068487E-1,0E0,1.5064597E0,2.5778131E0,0E0,8.2944024E-1,2.7544718E0,2.8733826E-1,7.203567E-1,1.5878744E0,0E0,0E0,0E0,0E0,0E0,0E0,0E0,0E0,0E0,0E0],"parents":[2147483647,0,0,1,1,2,2,3,3,5,5,6,6,8,8,9,9,10,10,11,11,12,12],"right_children":[2,4,6,8,-1,10,12,-1,14,16,18,20,22,-1,-1,-1,-1,-1,-1,-1,-1,-1,-1],"split_conditions":[-1.330386E-1,9.5302004E-1,5.9E1,-1.9285434E-1,2.9581437E-2,6.3164353E-1,2.9357067E-1,-8.8588305E-2,2.1E1,1.1440001E-1,9.08E3,8.080793E-1,1.8019575E-1,2.4553562E-2,-6.1288547E-2,-2.6885215E-2,5.6418996E-2,1.3266859E-2,8.1706606E-2,-7.2291665E-2,-5.6156307E-3,-4.6472024E-2,6.3836366E-2],"split_indices":[3,2,1,3,0,2,3,0,1,3,0,2,2,0,0,0,0,0,0,0,0,0,0],"split_type":[0,0,0,0,0,0,0,0,0,0,0,0,0,0,0,0,0,0,0,0,0,0,0],"sum_hessian":[4.2443726E1,9.488788E0,3.2954937E1,8.08259E0,1.4061975E0,2.0992002E1,1.1962935E1,5.3794136E0,2.7031765E0,1.405156E1,6.940442E0,7.4606886E0,4.5022473E0,1.4377495E0,1.265427E0,6.7735662E0,7.277994E0,1.1550795E0,5.7853627E0,4.993814E0,2.4668744E0,1.0145699E0,3.4876773E0],"tree_param":{"num_deleted":"0","num_feature":"6","num_nodes":"23","size_leaf_vector":"1"}},{"base_weights":[8.643255E-4,-1.6593768E-1,5.221278E-1,3.596924E-1,-3.3447778E-1,6.846348E-1,-1.24893505E-2,-3.0913386E-2,6.0360557E-1,-6.9855183E-1,-4.9059283E-2,3.1471273E-1,8.630854E-2,2.5786469E-2,8.560345E-2,-8.2029924E-2,-2.7378637E-2,-6.521441E-2,2.139322E-2,7.1158364E-2,-2.5250018E-2],"categories":[],"categories_nodes":[],"categories_segments":[],"categories_sizes":[],"default_left":[0,0,0,0,0,0,0,0,0,0,0,0,0,0,0,0,0,0,0,0,0],"id":37,"left_children":[1,3,5,7,9,11,-1,-1,13,15,17,19,-1,-1,-1,-1,-1,-1,-1,-1,-1],"loss_changes":[3.7536523E0,3.018044E0,1.1858828E0,1.5607704E0,2.5932934E0,2.9072022E-1,0E0,0E0,3.4752154E-1,3.461504E-1,2.5582085E0,1.1580158E0,0E0,0E0,0E0,0E0,0E0,0E0,0E0,0E0,0E0],"parents":[2147483647,0,0,1,1,2,2,3,3,4,4,5,5,8,8,9,9,10,10,11,11],"right_children":[2,4,6,8,10,12,-1,-1,14,16,18,20,-1,-1,-1,-1,-1,-1,-1,-1,-1],"split_conditions":[2.567581E-1,2E1,8.2E1,-2.340023E-1,5.738413E-1,2.1308501E-1,-1.24893505E-2,-3.0913386E-2,-1.7286526E-2,3.4535E4,-1.0305203E-1,5.9E1,8.630854E-2,2.5786469E-2,8.560345E-2,-8.2029924E-2,-2.7378637E-2,-6.521441E-2,2.139322E-2,7.1158364E-2,-2.5250018E-2],"split_indices":[3,1,1,3,2,2,0,0,3,0,3,1,0,0,0,0,0,0,0,0,0],"split_type":[0,0,0,0,0,0,0,0,0,0,0,0,0,0,0,0,0,0,0,0,0],"sum_hessian":[4.1174866E1,3.1709597E1,9.465268E0,7.4235206E0,2.4286077E1,7.51872E0,1.9465479E0,1.9123462E0,5.511174E0,1.0036393E1,1.4249683E1,3.3460517E0,4.1726685E0,3.1788185E0,2.3323557E0,7.0768323E0,2.9595609E0,3.8777103E0,1.0371973E1,1.8188802E0,1.5271715E0],"tree_param":{"num_deleted":"0","num_feature":"6","num_nodes":"21","size_leaf_vector":"1"}},{"base_weights":[2.0847707E-3,-3.437834E-1,2.354247E-1,-8.033005E-2,-7.942059E-1,6.209182E-1,2.5806153E-2,-7.010184E-2,1.8345253E-1,-8.6449265E-2,-2.1801196E-2,1.4522192E-1,8.338239E-2,-1.6110602E-1,6.66438E-1,-5.8028888E-2,3.7701663E-2,5.25876E-2,-2.694933E-2,-3.6686387E-2,5.9334755E-2,1.3606596E-2,7.9455264E-2],"categories":[],"categories_nodes":[],"categories_segments":[],"categories_sizes":[],"default_left":[0,0,0,0,0,0,0,0,0,0,0,0,0,0,0,0,0,0,0,0,0,0,0],"id":38,"left_children":[1,3,5,7,9,11,13,-1,15,-1,-1,17,-1,19,21,-1,-1,-1,-1,-1,-1,-1,-1],"loss_changes":[3.3975883E0,1.949054E0,2.0149403E0,2.0630412E0,6.0492992E-2,7.7112865E-1,2.1817865E0,0E0,1.5616825E0,0E0,0E0,7.628604E-1,0E0,2.4245765E0,1.7099082E-1,0E0,0E0,0E0,0E0,0E0,0E0,0E0,0E0],"parents":[2147483647,0,0,1,1,2,2,3,3,4,4,5,5,6,6,8,8,11,11,13,13,14,14],"right_children":[2,4,6,8,10,12,14,-1,16,-1,-1,18,-1,20,22,-1,-1,-1,-1,-1,-1,-1,-1],"split_conditions":[1.8276177E-2,3.9E1,4.4E1,4.433065E-1,9.4238347E-1,1.506081E-1,8.080793E-1,-7.010184E-2,-3.005884E-1,-8.6449265E-2,-2.1801196E-2,2.6E1,8.338239E-2,3.6629245E-1,2.2675E4,-5.8028888E-2,3.7701663E-2,5.25876E-2,-2.694933E-2,-3.6686387E-2,5.9334755E-2,1.3606596E-2,7.9455264E-2],"split_indices":[3,1,1,2,2,2,2,0,3,0,0,1,0,3,0,0,0,0,0,0,0,0,0],"split_type":[0,0,0,0,0,0,0,0,0,0,0,0,0,0,0,0,0,0,0,0,0,0,0],"sum_hessian":[4.0096077E1,1.5962436E1,2.4133642E1,1.0815036E1,5.147401E0,7.8095527E0,1.632409E1,2.7311041E0,8.083931E0,4.1418133E0,1.0055873E0,2.9346788E0,4.874874E0,1.3216527E1,3.1075633E0,1.2305725E0,6.8533587E0,1.3904172E0,1.5442615E0,1.0788088E1,2.4284387E0,1.0057986E0,2.1017647E0],"tree_param":{"num_deleted":"0","num_feature":"6","num_nodes":"23","size_leaf_vector":"1"}},{"base_weights":[2.6201801E-3,-2.4295218E-1,3.222351E-1,3.8867152E-1,-4.0007645E-1,5.0065655E-1,-3.1081593E-1,1.0068989E-3,5.8621474E-2,-7.273284E-1,-9.83198E-2,3.5058275E-2,8.424436E-2,-7.984418E-2,6.763053E-2,-7.862288E-2,-2.3598434E-2,1.5513291E-2,-7.080479E-2,-2.3571556E-2,7.051057E-2,-4.861612E-2,6.0021825E-2],"categories":[],"categories_nodes":[],"categories_segments":[],"categories_sizes":[],"default_left":[0,0,0,0,0,0,0,0,0,0,0,0,0,0,0,0,0,0,0,0,0,0,0],"id":39,"left_children":[1,3,5,7,9,11,13,-1,-1,15,17,19,-1,-1,21,-1,-1,-1,-1,-1,-1,-1,-1],"loss_changes":[3.213081E0,2.4535809E0,2.1642518E0,3.7702966E-1,1.8082976E0,2.2391589E0,8.894291E-1,0E0,0E0,7.422733E-2,1.8190339E0,1.4504681E0,0E0,0E0,1.3154907E0,0E0,0E0,0E0,0E0,0E0,0E0,0E0,0E0],"parents":[2147483647,0,0,1,1,2,2,3,3,4,4,5,5,6,6,9,9,10,10,11,11,14,14],"right_children":[2,4,6,8,10,12,14,-1,-1,16,18,20,-1,-1,22,-1,-1,-1,-1,-1,-1,-1,-1],"split_conditions":[1.1440001E-1,1.3E1,8.1E1,4.3108687E-1,6.6248393E-1,2.7623734E-1,2.2752923E-1,1.0068989E-3,5.8621474E-2,8.119542E-2,5.6E1,3.6629245E-1,8.424436E-2,-7.984418E-2,6.274866E-1,-7.862288E-2,-2.3598434E-2,1.5513291E-2,-7.080479E-2,-2.3571556E-2,7.051057E-2,-4.861612E-2,6.0021825E-2],"split_indices":[3,1,1,2,2,2,3,0,0,3,1,3,0,0,2,0,0,0,0,0,0,0,0],"split_type":[0,0,0,0,0,0,0,0,0,0,0,0,0,0,0,0,0,0,0,0,0,0,0],"sum_hessian":[3.8939476E1,2.215602E1,1.6783457E1,4.1200757E0,1.8035944E1,1.325637E1,3.5270875E0,1.7729976E0,2.347078E0,7.9758754E0,1.0060069E1,6.0785117E0,7.1778584E0,1.0562842E0,2.4708033E0,6.58619E0,1.3896852E0,7.6328177E0,2.427251E0,4.7907324E0,1.287779E0,1.2540241E0,1.2167792E0],"tree_param":{"num_deleted":"0","num_feature":"6","num_nodes":"23","size_leaf_vector":"1"}},{"base_weights":[1.6417081E-3,-5.028979E-1,1.5176006E-1,-6.7327964E-1,2.7878145E-2,4.1831148E-1,-1.297535E-1,-8.546376E-2,-1.911168E-1,9.228526E-2,6.5029097E-1,-2.9459077E-1,5.64777E-1,2.32122E-2,-5.714385E-2,-2.8783698E-2,5.2504342E-2,4.049513E-3,7.7733055E-2,-7.860259E-2,-3.2020577E-3,1.4760576E-2,6.880563E-2],"categories":[],"categories_nodes":[],"categories_segments":[],"categories_sizes":[],"default_left":[0,0,0,0,0,0,0,0,0,0,0,0,0,0,0,0,0,0,0,0,0,0,0],"id":40,"left_children":[1,3,5,7,-1,9,11,-1,13,15,17,19,21,-1,-1,-1,-1,-1,-1,-1,-1,-1,-1],"loss_changes":[3.0197787E0,1.4054337E0,2.3593707E0,5.1871014E-1,0E0,1.1512699E0,1.9641831E0,0E0,6.831384E-1,1.4381076E0,6.806135E-1,1.6972786E0,7.097757E-2,0E0,0E0,0E0,0E0,0E0,0E0,0E0,0E0,0E0,0E0],"parents":[2147483647,0,0,1,1,2,2,3,3,5,5,6,6,8,8,9,9,10,10,11,11,12,12],"right_children":[2,4,6,8,-1,10,12,-1,14,16,18,20,22,-1,-1,-1,-1,-1,-1,-1,-1,-1,-1],"split_conditions":[-1.330386E-1,9.5302004E-1,5E1,-1.9285434E-1,2.7878145E-2,3.4478143E-1,3.6629245E-1,-8.546376E-2,2.1E1,1.4751646E-1,9.08E3,4.463869E-1,4.2735517E-1,2.32122E-2,-5.714385E-2,-2.8783698E-2,5.2504342E-2,4.049513E-3,7.7733055E-2,-7.860259E-2,-3.2020577E-3,1.4760576E-2,6.880563E-2],"split_indices":[3,2,1,3,0,2,3,0,1,3,0,2,3,0,0,0,0,0,0,0,0,0,0],"split_type":[0,0,0,0,0,0,0,0,0,0,0,0,0,0,0,0,0,0,0,0,0,0,0],"sum_hessian":[3.786234E1,8.143264E0,2.9719078E1,6.799795E0,1.3434682E0,1.5015601E1,1.4703477E1,4.379869E0,2.4199264E0,6.823543E0,8.192058E0,1.2348557E1,2.3549187E0,1.3297696E0,1.0901569E0,3.8109732E0,3.01257E0,1.6397828E0,6.552275E0,3.605953E0,8.742605E0,1.0383885E0,1.3165303E0],"tree_param":{"num_deleted":"0","num_feature":"6","num_nodes":"23","size_leaf_vector":"1"}},{"base_weights":[1.7916084E-3,-3.2694006E-1,2.1991226E-1,-8.1642255E-2,-7.6027906E-1,7.4926294E-2,7.067929E-2,-5.4878724E-1,2.0384312E-1,-2.4406297E-2,-8.391219E-2,-3.036652E-1,2.9898643E-1,-4.7172415E-3,-6.8055056E-2,-1.1038836E-2,7.6533735E-2,-5.7182398E-2,4.3481227E-2,1.0431029E-2,7.607173E-2],"categories":[],"categories_nodes":[],"categories_segments":[],"categories_sizes":[],"default_left":[0,0,0,0,0,0,0,0,0,0,0,0,0,0,0,0,0,0,0,0,0],"id":41,"left_children":[1,3,5,7,9,-1,11,13,15,-1,-1,17,19,-1,-1,-1,-1,-1,-1,-1,-1],"loss_changes":[2.787683E0,1.5865265E0,1.7928805E0,1.5820189E0,1.8466711E-2,0E0,1.742976E0,2.621696E-1,1.4203713E0,0E0,0E0,1.7971551E0,1.045322E0,0E0,0E0,0E0,0E0,0E0,0E0,0E0,0E0],"parents":[2147483647,0,0,1,1,2,2,3,3,4,4,6,6,7,7,8,8,11,11,12,12],"right_children":[2,4,6,8,10,-1,12,14,16,-1,-1,18,20,-1,-1,-1,-1,-1,-1,-1,-1],"split_conditions":[1.8276177E-2,3.9E1,2.9E1,5.4960626E-1,4.5E1,7.4926294E-2,3.4994495E-1,1.3693E4,-1.125487E-1,-2.4406297E-2,-8.391219E-2,3.6629245E-1,2.9357067E-1,-4.7172415E-3,-6.8055056E-2,-1.1038836E-2,7.6533735E-2,-5.7182398E-2,4.3481227E-2,1.0431029E-2,7.607173E-2],"split_indices":[3,1,1,2,1,0,2,0,3,0,0,3,3,0,0,0,0,0,0,0,0],"split_type":[0,0,0,0,0,0,0,0,0,0,0,0,0,0,0,0,0,0,0,0,0],"sum_hessian":[3.6875385E1,1.45093355E1,2.236605E1,1.0023686E1,4.4856496E0,4.0344653E0,1.8331585E1,3.452311E0,6.5713754E0,1.1369749E0,3.3486745E0,6.8196507E0,1.1511933E1,1.0007035E0,2.4516077E0,4.72853E0,1.8428454E0,5.1685123E0,1.6511384E0,8.960075E0,2.5518584E0],"tree_param":{"num_deleted":"0","num_feature":"6","num_nodes":"21","size_leaf_vector":"1"}},{"base_weights":[2.5882262E-3,-1.4318033E-1,4.6954235E-1,2.7713045E-1,-3.3007076E-1,6.508223E-1,-1.6033387E-2,-2.0523903E-1,5.073705E-1,-8.6493485E-2,-1.4068075E-1,3.0995858E-1,8.149045E-2,-6.3142374E-2,3.8923603E-2,2.039865E-2,7.7938296E-2,-6.633673E-2,1.2331842E-2,6.7155264E-2,-2.1766232E-2],"categories":[],"categories_nodes":[],"categories_segments":[],"categories_sizes":[],"default_left":[0,0,0,0,0,0,0,0,0,0,0,0,0,0,0,0,0,0,0,0,0],"id":42,"left_children":[1,3,5,7,9,11,-1,13,15,-1,17,19,-1,-1,-1,-1,-1,-1,-1,-1,-1],"loss_changes":[2.5790453E0,2.3607802E0,1.1334621E0,1.1520355E0,1.9502487E0,1.498959E-1,0E0,1.1985224E0,3.9185655E-1,0E0,2.3309472E0,9.0020204E-1,0E0,0E0,0E0,0E0,0E0,0E0,0E0,0E0,0E0],"parents":[2147483647,0,0,1,1,2,2,3,3,4,4,5,5,7,7,8,8,10,10,11,11],"right_children":[2,4,6,8,10,12,-1,14,16,-1,18,20,-1,-1,-1,-1,-1,-1,-1,-1,-1],"split_conditions":[2.567581E-1,2.4E1,8.2E1,-1.868368E-1,-1.0305203E-1,2.1308501E-1,-1.6033387E-2,8.3826536E-1,4.8937646E-1,-8.6493485E-2,4.463869E-1,5.9E1,8.149045E-2,-6.3142374E-2,3.8923603E-2,2.039865E-2,7.7938296E-2,-6.633673E-2,1.2331842E-2,6.7155264E-2,-2.1766232E-2],"split_indices":[3,1,1,3,3,2,0,2,2,0,2,1,0,0,0,0,0,0,0,0,0],"split_type":[0,0,0,0,0,0,0,0,0,0,0,0,0,0,0,0,0,0,0,0,0],"sum_hessian":[3.590199E1,2.7889217E1,8.012772E0,8.435405E0,1.9453812E1,6.196228E0,1.8165438E0,2.7605145E0,5.67489E0,4.1543612E0,1.5299451E1,2.95226E0,3.243968E0,1.5716387E0,1.1888757E0,3.5099967E0,2.1648934E0,4.6265926E0,1.0672858E1,1.5898768E0,1.3623831E0],"tree_param":{"num_deleted":"0","num_feature":"6","num_nodes":"21","size_leaf_vector":"1"}},{"base_weights":[3.564293E-3,-2.7289653E-1,2.3709637E-1,2.9394656E-1,-4.3758038E-1,4.56324E-1,-1.9905357E-1,-1.3810224E-2,5.404982E-2,-6.9348715E-2,-9.3442194E-2,-1.6374547E-2,5.689293E-1,-5.548215E-1,2.3496634E-1,-5.4645427E-2,2.0625722E-2,9.145114E-3,7.281154E-2,-7.6673545E-2,-1.8594662E-2,-3.6204807E-2,6.705221E-2],"categories":[],"categories_nodes":[],"categories_segments":[],"categories_sizes":[],"default_left":[0,0,0,0,0,0,0,0,0,0,0,0,0,0,0,0,0,0,0,0,0,0,0],"id":43,"left_children":[1,3,5,7,9,11,13,-1,-1,-1,15,-1,17,19,21,-1,-1,-1,-1,-1,-1,-1,-1],"loss_changes":[2.3847077E0,1.7080724E0,2.0045528E0,5.4410744E-1,1.125205E0,1.0443833E0,1.2716551E0,0E0,0E0,0E0,1.0520188E0,0E0,8.2673645E-1,1.9819427E-1,1.2912072E0,0E0,0E0,0E0,0E0,0E0,0E0,0E0,0E0],"parents":[2147483647,0,0,1,1,2,2,3,3,4,4,5,5,6,6,10,10,12,12,13,13,14,14],"right_children":[2,4,6,8,10,12,14,-1,-1,-1,16,-1,18,20,22,-1,-1,-1,-1,-1,-1,-1,-1],"split_conditions":[5.7310574E-2,1.3E1,6.6E1,4.3108687E-1,7.4677664E-1,4.2837556E-2,2.9357067E-1,-1.3810224E-2,5.404982E-2,-6.9348715E-2,1E0,-1.6374547E-2,1.1440001E-1,1.9970521E-1,2.967867E-1,-5.4645427E-2,2.0625722E-2,9.145114E-3,7.281154E-2,-7.6673545E-2,-1.8594662E-2,-3.6204807E-2,6.705221E-2],"split_indices":[3,1,1,2,2,2,3,0,0,0,4,0,3,3,2,0,0,0,0,0,0,0,0],"split_type":[0,0,0,0,0,0,0,0,0,0,0,0,0,0,0,0,0,0,0,0,0,0,0],"sum_hessian":[3.493426E1,1.5919646E1,1.9014616E1,3.4071825E0,1.2512464E1,1.2623333E1,6.3912826E0,1.3977236E0,2.009459E0,6.593952E0,5.9185114E0,1.87029E0,1.0753043E1,3.3593102E0,3.0319726E0,2.0286915E0,3.8898199E0,3.0822701E0,7.670773E0,1.4485551E0,1.9107552E0,1.3501267E0,1.6818458E0],"tree_param":{"num_deleted":"0","num_feature":"6","num_nodes":"23","size_leaf_vector":"1"}},{"base_weights":[1.593626E-3,-3.5925448E-1,1.6444042E-1,-6.2199914E-1,1.1669693E-1,5.678229E-1,-7.4182436E-2,-1.9384925E-1,-7.708999E-2,4.5483552E-2,-1.9435458E-1,6.220889E-2,8.0631375E-2,-2.660256E-1,3.746295E-1,-4.531015E-2,1.5294941E-2,-5.7851184E-2,3.2379918E-2,-3.1185642E-2,4.238334E-2,-4.503276E-2,2.3280041E-2,-2.4458166E-2,6.051287E-2],"categories":[],"categories_nodes":[],"categories_segments":[],"categories_sizes":[],"default_left":[0,0,0,0,0,0,0,0,0,0,0,0,0,0,0,0,0,0,0,0,0,0,0,0,0],"id":44,"left_children":[1,3,5,7,9,11,13,15,-1,-1,17,19,-1,21,23,-1,-1,-1,-1,-1,-1,-1,-1,-1,-1],"loss_changes":[2.118938E0,1.4749652E0,2.4330826E0,3.2126975E-1,5.9649324E-1,1.0770612E0,1.5196067E0,3.6070687E-1,0E0,0E0,8.276316E-1,6.8404096E-1,0E0,1.2207325E0,9.1211087E-1,0E0,0E0,0E0,0E0,0E0,0E0,0E0,0E0,0E0,0E0],"parents":[2147483647,0,0,1,1,2,2,3,3,4,4,5,5,6,6,7,7,10,10,11,11,13,13,14,14],"right_children":[2,4,6,8,10,12,14,16,-1,-1,18,20,-1,22,24,-1,-1,-1,-1,-1,-1,-1,-1,-1,-1],"split_conditions":[-4.57216E-2,8.2478786E-1,4.4E1,1.7E1,2.1E1,1.7208923E-1,2.9357067E-1,-1.8034795E-1,-7.708999E-2,4.5483552E-2,-1.3635464E-1,1.4751646E-1,8.0631375E-2,8.080793E-1,1.8019575E-1,-4.531015E-2,1.5294941E-2,-5.7851184E-2,3.2379918E-2,-3.1185642E-2,4.238334E-2,-4.503276E-2,2.3280041E-2,-2.4458166E-2,6.051287E-2],"split_indices":[3,2,1,1,1,2,3,3,0,0,3,3,0,2,2,0,0,0,0,0,0,0,0,0,0],"split_type":[0,0,0,0,0,0,0,0,0,0,0,0,0,0,0,0,0,0,0,0,0,0,0,0,0],"sum_hessian":[3.405375E1,1.0214222E1,2.3839525E1,6.383445E0,3.8307767E0,8.347993E0,1.5491533E1,2.2411373E0,4.1423078E0,1.6139878E0,2.216789E0,3.0796998E0,5.268293E0,1.113793E1,4.353604E0,1.1070366E0,1.1341007E0,1.2061023E0,1.0106866E0,1.5814586E0,1.4982413E0,8.204008E0,2.933922E0,1.16442E0,3.1891837E0],"tree_param":{"num_deleted":"0","num_feature":"6","num_nodes":"25","size_leaf_vector":"1"}},{"base_weights":[2.1124326E-3,-2.5480697E-1,2.1767205E-1,-5.8252193E-2,-7.4943095E-2,4.288308E-1,-1.9898798E-1,-2.9206985E-1,4.6463475E-1,8.709483E-2,6.6727555E-1,-7.3811255E-2,5.411753E-2,-5.044323E-2,1.4558188E-2,-8.341766E-3,6.7470744E-2,7.141165E-2,-2.1880245E-2,1.4903407E-2,8.8756904E-2,-2.7945502E-2,4.94357E-2],"categories":[],"categories_nodes":[],"categories_segments":[],"categories_sizes":[],"default_left":[0,0,0,0,0,0,0,0,0,0,0,0,0,0,0,0,0,0,0,0,0,0,0],"id":45,"left_children":[1,3,5,7,-1,9,11,13,15,17,19,-1,21,-1,-1,-1,-1,-1,-1,-1,-1,-1,-1],"loss_changes":[1.944006E0,1.5136702E0,1.7642071E0,1.6697625E0,0E0,9.9964786E-1,1.0089265E0,9.36335E-1,5.470943E-1,1.4001242E0,7.2349834E-1,0E0,9.846169E-1,0E0,0E0,0E0,0E0,0E0,0E0,0E0,0E0,0E0,0E0],"parents":[2147483647,0,0,1,1,2,2,3,3,5,5,6,6,7,7,8,8,9,9,10,10,12,12],"right_children":[2,4,6,8,-1,10,12,14,16,18,20,-1,22,-1,-1,-1,-1,-1,-1,-1,-1,-1,-1],"split_conditions":[5.7310574E-2,4.8E1,6.6E1,8.3364314E-1,-7.4943095E-2,2.7623734E-1,1.9970521E-1,-4.57216E-2,-2.558384E-1,2.6E1,1.1440001E-1,-7.3811255E-2,6.274866E-1,-5.044323E-2,1.4558188E-2,-8.341766E-3,6.7470744E-2,7.141165E-2,-2.1880245E-2,1.4903407E-2,8.8756904E-2,-2.7945502E-2,4.94357E-2],"split_indices":[3,1,1,2,0,2,3,3,3,1,3,0,2,0,0,0,0,0,0,0,0,0,0],"split_type":[0,0,0,0,0,0,0,0,0,0,0,0,0,0,0,0,0,0,0,0,0,0,0],"sum_hessian":[3.310062E1,1.5018465E1,1.8082155E1,1.1547475E1,3.4709902E0,1.1981069E1,6.1010857E0,8.284396E0,3.2630782E0,5.4851227E0,6.4959464E0,1.3369995E0,4.7640862E0,5.4751115E0,2.809285E0,1.0712461E0,2.191832E0,1.3609595E0,4.124163E0,2.4377208E0,4.0582256E0,2.9181807E0,1.8459054E0],"tree_param":{"num_deleted":"0","num_feature":"6","num_nodes":"23","size_leaf_vector":"1"}},{"base_weights":[3.6132955E-3,-1.2467229E-1,4.1761792E-1,6.234908E-4,-6.9826865E-1,6.128236E-1,-1.9416582E-2,-3.861835E-1,2.018957E-1,-8.484408E-2,-8.561392E-3,2.6212332E-1,7.7405035E-2,5.92001E-3,-7.017153E-2,4.5939535E-4,7.398343E-2,5.8510024E-2,-1.585679E-2],"categories":[],"categories_nodes":[],"categories_segments":[],"categories_sizes":[],"default_left":[0,0,0,0,0,0,0,0,0,0,0,0,0,0,0,0,0,0,0],"id":46,"left_children":[1,3,5,7,9,11,-1,13,15,-1,-1,17,-1,-1,-1,-1,-1,-1,-1],"loss_changes":[1.817947E0,1.8800757E0,1.0857681E0,1.8268677E0,3.588271E-1,1.5771627E-1,0E0,1.1702559E0,1.6345253E0,0E0,0E0,5.71141E-1,0E0,0E0,0E0,0E0,0E0,0E0,0E0],"parents":[2147483647,0,0,1,1,2,2,3,3,4,4,5,5,7,7,8,8,11,11],"right_children":[2,4,6,8,10,12,-1,14,16,-1,-1,18,-1,-1,-1,-1,-1,-1,-1],"split_conditions":[2.567581E-1,6.6E1,8.2E1,4.1564217E-1,1.9970521E-1,3.2848814E-1,-1.9416582E-2,2.6E1,8.119542E-2,-8.484408E-2,-8.561392E-3,6.1E1,7.7405035E-2,5.92001E-3,-7.017153E-2,4.5939535E-4,7.398343E-2,5.8510024E-2,-1.585679E-2],"split_indices":[3,1,1,2,3,3,0,1,3,0,0,1,0,0,0,0,0,0,0],"split_type":[0,0,0,0,0,0,0,0,0,0,0,0,0,0,0,0,0,0,0],"sum_hessian":[3.2248993E1,2.5153625E1,7.095369E0,2.1463972E1,3.6896546E0,5.3777547E0,1.717614E0,7.031688E0,1.4432283E1,2.654204E0,1.0354507E0,2.520648E0,2.8571067E0,3.2527304E0,3.7789576E0,1.1297278E1,3.1350048E0,1.2048459E0,1.3158022E0],"tree_param":{"num_deleted":"0","num_feature":"6","num_nodes":"19","size_leaf_vector":"1"}},{"base_weights":[3.8866315E-3,-4.1694844E-1,1.2096547E-1,-5.9868175E-1,2.7779877E-2,3.1352213E-1,-2.0511068E-1,-8.0038235E-2,-1.1639268E-2,-1.4504848E-2,5.4466885E-1,-3.7953228E-1,4.277704E-2,-2.1859517E-2,5.9474554E-2,2.0512503E-2,7.3758654E-2,-7.266506E-2,-1.3441796E-2],"categories":[],"categories_nodes":[],"categories_segments":[],"categories_sizes":[],"default_left":[0,0,0,0,0,0,0,0,0,0,0,0,0,0,0,0,0,0,0],"id":47,"left_children":[1,3,5,7,-1,9,11,-1,-1,13,15,17,-1,-1,-1,-1,-1,-1,-1],"loss_changes":[1.6573671E0,1.0909656E0,1.7150526E0,5.0237155E-1,0E0,1.2911983E0,1.3065996E0,0E0,0E0,1.1210654E0,5.007725E-1,6.388087E-1,0E0,0E0,0E0,0E0,0E0,0E0,0E0],"parents":[2147483647,0,0,1,1,2,2,3,3,5,5,6,6,9,9,10,10,11,11],"right_children":[2,4,6,8,-1,10,12,-1,-1,14,16,18,-1,-1,-1,-1,-1,-1,-1],"split_conditions":[-1.330386E-1,9.5302004E-1,5.9E1,-1.9285434E-1,2.7779877E-2,2.0873E4,3.6629245E-1,-8.0038235E-2,-1.1639268E-2,1.9465378E-1,3.4994495E-1,4.463869E-1,4.277704E-2,-2.1859517E-2,5.9474554E-2,2.0512503E-2,7.3758654E-2,-7.266506E-2,-1.3441796E-2],"split_indices":[3,2,1,3,0,0,3,0,0,3,2,2,0,0,0,0,0,0,0],"split_type":[0,0,0,0,0,0,0,0,0,0,0,0,0,0,0,0,0,0,0],"sum_hessian":[3.1614206E1,6.323475E0,2.5290731E1,5.1219416E0,1.2015332E0,1.5925059E1,9.365672E0,3.146485E0,1.9754566E0,6.970405E0,8.954655E0,7.655995E0,1.7096767E0,5.7016416E0,1.2687635E0,3.9919386E0,4.9627156E0,2.355591E0,5.300404E0],"tree_param":{"num_deleted":"0","num_feature":"6","num_nodes":"19","size_leaf_vector":"1"}},{"base_weights":[4.2700376E-3,-1.4540944E-1,3.2536122E-1,2.531946E-1,-3.5274065E-1,4.6761805E-1,-4.2679146E-2,-2.6796525E-2,4.1754314E-1,-6.464613E-1,-6.128769E-2,-2.8918225E-2,7.095337E-1,1.0490662E-2,6.844637E-2,-2.5342757E-2,-7.217523E-2,-6.827416E-2,1.8803485E-2,3.8329817E-2,-3.850881E-2,3.3132147E-2,8.286113E-2],"categories":[],"categories_nodes":[],"categories_segments":[],"categories_sizes":[],"default_left":[0,0,0,0,0,0,0,0,0,0,0,0,0,0,0,0,0,0,0,0,0,0,0],"id":48,"left_children":[1,3,5,7,9,11,-1,-1,13,15,17,19,21,-1,-1,-1,-1,-1,-1,-1,-1,-1,-1],"loss_changes":[1.5850694E0,1.9499567E0,1.3211275E0,8.215793E-1,1.2640232E0,1.1366632E0,0E0,0E0,4.8648524E-1,3.8434982E-2,1.4838885E0,7.3559314E-1,8.611679E-3,0E0,0E0,0E0,0E0,0E0,0E0,0E0,0E0,0E0,0E0],"parents":[2147483647,0,0,1,1,2,2,3,3,4,4,5,5,8,8,9,9,10,10,11,11,12,12],"right_children":[2,4,6,8,10,12,-1,-1,14,16,18,20,22,-1,-1,-1,-1,-1,-1,-1,-1,-1,-1],"split_conditions":[1.8135302E-1,2.4E1,8.7E1,-2.340023E-1,1E0,2.0498121E-1,-4.2679146E-2,-2.6796525E-2,4.946752E-1,3.4E1,-1.0305203E-1,5.1E1,4.463869E-1,1.0490662E-2,6.844637E-2,-2.5342757E-2,-7.217523E-2,-6.827416E-2,1.8803485E-2,3.8329817E-2,-3.850881E-2,3.3132147E-2,8.286113E-2],"split_indices":[3,1,1,3,4,2,0,0,2,1,3,1,2,0,0,0,0,0,0,0,0,0,0],"split_type":[0,0,0,0,0,0,0,0,0,0,0,0,0,0,0,0,0,0,0,0,0,0,0],"sum_hessian":[3.0996136E1,2.1514229E1,9.481907E0,7.285775E0,1.4228455E1,8.291925E0,1.1899819E0,1.5955894E0,5.6901855E0,6.479986E0,7.7484684E0,3.0048587E0,5.2870665E0,3.2622404E0,2.4279451E0,1.7436684E0,4.7363176E0,1.720819E0,6.0276494E0,1.3575358E0,1.647323E0,2.1717122E0,3.115354E0],"tree_param":{"num_deleted":"0","num_feature":"6","num_nodes":"23","size_leaf_vector":"1"}},{"base_weights":[3.3445458E-3,-1.14486985E-1,3.9125213E-1,3.2499832E-1,-2.6167402E-1,5.8917856E-1,-1.7896106E-2,-2.1814002E-2,5.1903296E-1,-5.9415025E-1,-1.7438293E-2,2.472108E-1,7.404866E-2,2.0808967E-2,7.420768E-2,-7.2010286E-2,-1.3244544E-2,1.5334147E-2,-6.1844088E-2,5.4459095E-2,-1.3673651E-2],"categories":[],"categories_nodes":[],"categories_segments":[],"categories_sizes":[],"default_left":[0,0,0,0,0,0,0,0,0,0,0,0,0,0,0,0,0,0,0,0,0],"id":49,"left_children":[1,3,5,7,9,11,-1,-1,13,15,17,19,-1,-1,-1,-1,-1,-1,-1,-1,-1],"loss_changes":[1.4762431E0,1.6889112E0,9.544866E-1,8.15797E-1,1.5428722E0,1.1795664E-1,0E0,0E0,2.0675969E-1,3.7394047E-1,1.3324053E0,4.4961378E-1,0E0,0E0,0E0,0E0,0E0,0E0,0E0,0E0,0E0],"parents":[2147483647,0,0,1,1,2,2,3,3,4,4,5,5,8,8,9,9,10,10,11,11],"right_children":[2,4,6,8,10,12,-1,-1,14,16,18,20,-1,-1,-1,-1,-1,-1,-1,-1,-1],"split_conditions":[2.567581E-1,2E1,8.2E1,-2.340023E-1,5.738413E-1,3.2848814E-1,-1.7896106E-2,-2.1814002E-2,-1.7286526E-2,3.4535E4,7.3E1,6.1E1,7.404866E-2,2.0808967E-2,7.420768E-2,-7.2010286E-2,-1.3244544E-2,1.5334147E-2,-6.1844088E-2,5.4459095E-2,-1.3673651E-2],"split_indices":[3,1,1,3,2,3,0,0,3,0,1,1,0,0,0,0,0,0,0,0,0],"split_type":[0,0,0,0,0,0,0,0,0,0,0,0,0,0,0,0,0,0,0,0,0],"sum_hessian":[3.0317448E1,2.3794458E1,6.522989E0,5.6665773E0,1.812788E1,4.817521E0,1.7054675E0,1.458826E0,4.2077513E0,7.0703607E0,1.105752E1,2.2856355E0,2.5318859E0,2.5649428E0,1.6428087E0,5.115262E0,1.9550987E0,9.190751E0,1.8667692E0,1.0522399E0,1.2333956E0],"tree_param":{"num_deleted":"0","num_feature":"6","num_nodes":"21","size_leaf_vector":"1"}},{"base_weights":[4.3860176E-3,-2.633316E-1,1.7785314E-1,4.1992214E-2,-3.893065E-1,3.826299E-1,-1.3447474E-1,-7.258127E-2,-1.8782657E-1,-1.5375135E-2,5.2084345E-1,-3.1600425E-1,3.9218064E-2,1.0660557E-2,-6.1312914E-2,4.1923378E-2,-3.2420453E-2,1.3326282E-2,6.9163986E-2,-4.860362E-2,2.5947353E-2],"categories":[],"categories_nodes":[],"categories_segments":[],"categories_sizes":[],"default_left":[0,0,0,0,0,0,0,0,0,0,0,0,0,0,0,0,0,0,0,0,0],"id":50,"left_children":[1,3,5,-1,7,9,11,-1,13,15,17,19,-1,-1,-1,-1,-1,-1,-1,-1,-1],"loss_changes":[1.4788578E0,1.2417397E0,1.2863799E0,0E0,6.15978E-1,6.6384923E-1,9.2568576E-1,0E0,1.1034137E0,6.7875254E-1,4.9552536E-1,7.905497E-1,0E0,0E0,0E0,0E0,0E0,0E0,0E0,0E0,0E0],"parents":[2147483647,0,0,1,1,2,2,4,4,5,5,6,6,8,8,9,9,10,10,11,11],"right_children":[2,4,6,-1,8,10,12,-1,14,16,18,20,-1,-1,-1,-1,-1,-1,-1,-1,-1],"split_conditions":[1.8276177E-2,7E0,6.2E1,4.1992214E-2,5.53379E-1,1.506081E-1,3.6629245E-1,-7.258127E-2,3.9E1,2.6E1,8.119542E-2,8.080793E-1,3.9218064E-2,1.0660557E-2,-6.1312914E-2,4.1923378E-2,-3.2420453E-2,1.3326282E-2,6.9163986E-2,-4.860362E-2,2.5947353E-2],"split_indices":[3,1,1,0,2,2,3,0,1,1,3,2,0,0,0,0,0,0,0,0,0],"split_type":[0,0,0,0,0,0,0,0,0,0,0,0,0,0,0,0,0,0,0,0,0],"sum_hessian":[2.9835855E1,1.1527315E1,1.830854E1,1.4312456E0,1.0096069E1,1.0922288E1,7.386253E0,2.8064342E0,7.289635E0,3.044368E0,7.87792E0,5.790382E0,1.5958709E0,4.750358E0,2.5392773E0,1.1161463E0,1.9282216E0,2.9542396E0,4.9236803E0,4.589716E0,1.2006663E0],"tree_param":{"num_deleted":"0","num_feature":"6","num_nodes":"21","size_leaf_vector":"1"}},{"base_weights":[4.889555E-3,-3.8855153E-1,1.12411186E-1,-5.742255E-1,2.6854014E-2,3.4665722E-1,-1.2266807E-1,-7.6904155E-2,-1.1870098E-2,-8.7382354E-2,4.9182826E-1,-5.1571953E-1,8.894477E-2,-3.2972254E-2,2.0607676E-2,1.2010754E-2,6.46845E-2,-6.2039018E-2,-1.1529642E-2,-3.1965405E-2,3.9564926E-2],"categories":[],"categories_nodes":[],"categories_segments":[],"categories_sizes":[],"default_left":[0,0,0,0,0,0,0,0,0,0,0,0,0,0,0,0,0,0,0,0,0],"id":51,"left_children":[1,3,5,7,-1,9,11,-1,-1,13,15,17,19,-1,-1,-1,-1,-1,-1,-1,-1],"loss_changes":[1.322325E0,9.730644E-1,1.392416E0,4.0138793E-1,0E0,8.331276E-1,1.1249648E0,0E0,0E0,3.518564E-1,4.724903E-1,1.2493682E-1,1.2902224E0,0E0,0E0,0E0,0E0,0E0,0E0,0E0,0E0],"parents":[2147483647,0,0,1,1,2,2,3,3,5,5,6,6,9,9,10,10,11,11,12,12],"right_children":[2,4,6,8,-1,10,12,-1,-1,14,16,18,20,-1,-1,-1,-1,-1,-1,-1,-1],"split_conditions":[-1.330386E-1,9.5302004E-1,5E1,-1.9285434E-1,2.6854014E-2,1.506081E-1,1.1440001E-1,-7.6904155E-2,-1.1870098E-2,1.4751646E-1,-2.6972497E-2,8.4792787E-1,4.463869E-1,-3.2972254E-2,2.0607676E-2,1.2010754E-2,6.46845E-2,-6.2039018E-2,-1.1529642E-2,-3.1965405E-2,3.9564926E-2],"split_indices":[3,2,1,3,0,2,3,0,0,3,3,2,2,0,0,0,0,0,0,0,0],"split_type":[0,0,0,0,0,0,0,0,0,0,0,0,0,0,0,0,0,0,0,0,0],"sum_hessian":[2.9225624E1,5.711716E0,2.3513908E1,4.5516653E0,1.1600506E0,1.1540086E1,1.1973822E1,2.706087E0,1.8455782E0,2.992133E0,8.547953E0,3.6875134E0,8.286308E0,1.5711205E0,1.4210124E0,3.0379465E0,5.5100064E0,2.4878523E0,1.199661E0,3.5348618E0,4.7514467E0],"tree_param":{"num_deleted":"0","num_feature":"6","num_nodes":"21","size_leaf_vector":"1"}},{"base_weights":[2.2788218E-3,-1.09867E-1,3.715795E-1,3.1587058E-1,-2.5197914E-1,5.7327557E-1,-1.7555986E-2,-1.9317303E-2,4.9545696E-1,-5.730276E-1,-1.9672126E-2,2.3670371E-1,7.1565926E-2,2.0223139E-2,7.061633E-2,-6.871166E-2,-1.355051E-2,-5.1779266E-2,1.783222E-2,-1.4508061E-2,4.9148913E-2],"categories":[],"categories_nodes":[],"categories_segments":[],"categories_sizes":[],"default_left":[0,0,0,0,0,0,0,0,0,0,0,0,0,0,0,0,0,0,0,0,0],"id":52,"left_children":[1,3,5,7,9,11,-1,-1,13,15,17,19,-1,-1,-1,-1,-1,-1,-1,-1,-1],"loss_changes":[1.2662467E0,1.4994698E0,8.8642204E-1,6.7318743E-1,1.3424711E0,9.11541E-2,0E0,0E0,1.6302991E-1,2.854879E-1,1.2330863E0,3.7387475E-1,0E0,0E0,0E0,0E0,0E0,0E0,0E0,0E0,0E0],"parents":[2147483647,0,0,1,1,2,2,3,3,4,4,5,5,8,8,9,9,10,10,11,11],"right_children":[2,4,6,8,10,12,-1,-1,14,16,18,20,-1,-1,-1,-1,-1,-1,-1,-1,-1],"split_conditions":[2.567581E-1,2E1,8.2E1,-2.340023E-1,5.738413E-1,3.2848814E-1,-1.7555986E-2,-1.9317303E-2,-1.7286526E-2,3.4535E4,-1.0305203E-1,2.0498121E-1,7.1565926E-2,2.0223139E-2,7.061633E-2,-6.871166E-2,-1.355051E-2,-5.1779266E-2,1.783222E-2,-1.4508061E-2,4.9148913E-2],"split_indices":[3,1,1,3,2,3,0,0,3,0,3,2,0,0,0,0,0,0,0,0,0],"split_type":[0,0,0,0,0,0,0,0,0,0,0,0,0,0,0,0,0,0,0,0,0],"sum_hessian":[2.8588476E1,2.2468079E1,6.120399E0,5.3169494E0,1.7151129E1,4.4369893E0,1.6834096E0,1.3668662E0,3.9500833E0,6.5845685E0,1.056656E1,2.110514E0,2.3264754E0,2.4710581E0,1.4790251E0,4.77021E0,1.8143586E0,2.5460174E0,8.020543E0,1.0170652E0,1.0934486E0],"tree_param":{"num_deleted":"0","num_feature":"6","num_nodes":"21","size_leaf_vector":"1"}},{"base_weights":[3.6358892E-3,-2.1232525E-1,1.8197356E-1,2.5131797E-2,-5.505589E-1,3.208698E-1,-3.2500747E-1,-4.5523503E-1,2.4778844E-1,-7.740567E-2,-1.0195763E-1,1.3368845E-1,7.0812546E-2,1.1092558E-2,-6.6597365E-2,-5.893716E-2,-9.092349E-3,-1.4832251E-2,4.698955E-2,8.452128E-3,-2.386264E-2,-9.994588E-3,5.2674104E-2],"categories":[],"categories_nodes":[],"categories_segments":[],"categories_sizes":[],"default_left":[0,0,0,0,0,0,0,0,0,0,0,0,0,0,0,0,0,0,0,0,0,0,0],"id":53,"left_children":[1,3,5,7,9,11,13,15,17,-1,19,21,-1,-1,-1,-1,-1,-1,-1,-1,-1,-1,-1],"loss_changes":[1.1595149E0,1.1081074E0,1.2646662E0,1.0712582E0,4.889021E-1,8.794141E-1,6.744489E-1,1.02327585E-1,6.6536474E-1,0E0,9.751852E-2,9.977609E-1,0E0,0E0,0E0,0E0,0E0,0E0,0E0,0E0,0E0,0E0,0E0],"parents":[2147483647,0,0,1,1,2,2,3,3,4,4,5,5,6,6,7,7,8,8,10,10,11,11],"right_children":[2,4,6,8,10,12,14,16,18,-1,20,22,-1,-1,-1,-1,-1,-1,-1,-1,-1,-1,-1],"split_conditions":[5.329064E-2,3.4E1,8.1E1,4.433065E-1,8.581204E-1,6.300399E-1,3.291E4,-4.880681E-2,-1.868368E-1,-7.740567E-2,9.3841374E-1,2.7338105E-1,7.0812546E-2,1.1092558E-2,-6.6597365E-2,-5.893716E-2,-9.092349E-3,-1.4832251E-2,4.698955E-2,8.452128E-3,-2.386264E-2,-9.994588E-3,5.2674104E-2],"split_indices":[3,1,1,2,2,2,0,3,3,0,2,3,0,0,0,0,0,0,0,0,0,0,0],"split_type":[0,0,0,0,0,0,0,0,0,0,0,0,0,0,0,0,0,0,0,0,0,0,0],"sum_hessian":[2.8103107E1,1.2624576E1,1.5478532E1,7.9611473E0,4.663429E0,1.2438018E1,3.0405135E0,2.1905725E0,5.7705746E0,2.6284292E0,2.0349996E0,9.291945E0,3.1460729E0,1.6305239E0,1.4099897E0,1.1495498E0,1.0410228E0,2.1925433E0,3.578031E0,1.0220354E0,1.0129642E0,6.2955356E0,2.9964097E0],"tree_param":{"num_deleted":"0","num_feature":"6","num_nodes":"23","size_leaf_vector":"1"}},{"base_weights":[8.511973E-4,-1.4443193E-1,2.5144255E-1,2.7763057E-1,-3.1332564E-1,3.6648667E-1,-3.6752414E-2,-1.7135896E-2,4.472733E-1,-6.396243E-2,-4.0628803E-3,-7.038084E-2,6.070088E-1,8.056088E-3,6.1609156E-2,-3.1450737E-2,3.2156013E-2,3.91505E-2,-3.9550476E-2,2.5327057E-2,7.32986E-2],"categories":[],"categories_nodes":[],"categories_segments":[],"categories_sizes":[],"default_left":[0,0,0,0,0,0,0,0,0,0,0,0,0,0,0,0,0,0,0,0,0],"id":54,"left_children":[1,3,5,7,9,11,-1,-1,13,-1,15,17,19,-1,-1,-1,-1,-1,-1,-1,-1],"loss_changes":[1.0763571E0,1.4213097E0,9.072221E-1,5.245024E-1,1.3938799E0,1.0566205E0,0E0,0E0,2.3170608E-1,0E0,9.210716E-1,8.039149E-1,9.630275E-2,0E0,0E0,0E0,0E0,0E0,0E0,0E0,0E0],"parents":[2147483647,0,0,1,1,2,2,3,3,4,4,5,5,8,8,10,10,11,11,12,12],"right_children":[2,4,6,8,10,12,-1,-1,14,-1,16,18,20,-1,-1,-1,-1,-1,-1,-1,-1],"split_conditions":[1.4751646E-1,2E1,8.7E1,-2.340023E-1,1E0,2.0498121E-1,-3.6752414E-2,-1.7135896E-2,2.967867E-1,-6.396243E-2,7.4800473E-1,4.5E1,4.463869E-1,8.056088E-3,6.1609156E-2,-3.1450737E-2,3.2156013E-2,3.91505E-2,-3.9550476E-2,2.5327057E-2,7.32986E-2],"split_indices":[3,1,1,3,4,2,0,0,2,0,2,1,2,0,0,0,0,0,0,0,0],"split_type":[0,0,0,0,0,0,0,0,0,0,0,0,0,0,0,0,0,0,0,0,0],"sum_hessian":[2.7567297E1,1.7718458E1,9.848839E0,4.8798866E0,1.2838572E1,8.649168E0,1.1996706E0,1.3353995E0,3.544487E0,5.727425E0,7.111147E0,3.3222501E0,5.326918E0,1.583015E0,1.961472E0,3.657896E0,3.453251E0,1.2881186E0,2.0341315E0,2.1894608E0,3.1374574E0],"tree_param":{"num_deleted":"0","num_feature":"6","num_nodes":"21","size_leaf_vector":"1"}},{"base_weights":[2.713194E-3,-2.3236698E-1,1.5321897E-1,4.0159862E-2,-3.5718113E-1,3.5894692E-1,-1.4750172E-1,-6.8012945E-2,-1.630943E-1,5.5673204E-2,5.395214E-1,-4.205601E-1,2.1328804E-1,6.484141E-3,-6.644473E-2,2.7711315E-2,-4.0151473E-2,2.2964451E-2,7.111801E-2,-7.027866E-3,-6.178847E-2,-2.1859378E-2,6.1427135E-2],"categories":[],"categories_nodes":[],"categories_segments":[],"categories_sizes":[],"default_left":[0,0,0,0,0,0,0,0,0,0,0,0,0,0,0,0,0,0,0,0,0,0,0],"id":55,"left_children":[1,3,5,-1,7,9,11,-1,13,15,17,19,21,-1,-1,-1,-1,-1,-1,-1,-1,-1,-1],"loss_changes":[1.0274905E0,1.0407602E0,1.1476413E0,0E0,5.1612496E-1,5.6129444E-1,8.676405E-1,0E0,9.074795E-1,6.3213253E-1,1.9057548E-1,2.9050744E-1,8.382917E-1,0E0,0E0,0E0,0E0,0E0,0E0,0E0,0E0,0E0,0E0],"parents":[2147483647,0,0,1,1,2,2,4,4,5,5,6,6,8,8,9,9,10,10,11,11,12,12],"right_children":[2,4,6,-1,8,10,12,-1,14,16,18,20,22,-1,-1,-1,-1,-1,-1,-1,-1,-1,-1],"split_conditions":[1.8276177E-2,7E0,6.2E1,4.0159862E-2,5.625552E-1,2.0873E4,2.9357067E-1,-6.8012945E-2,4.5E1,1.8658E4,2.676008E-1,7.3E1,2.967867E-1,6.484141E-3,-6.644473E-2,2.7711315E-2,-4.0151473E-2,2.2964451E-2,7.111801E-2,-7.027866E-3,-6.178847E-2,-2.1859378E-2,6.1427135E-2],"split_indices":[3,1,1,0,2,0,3,0,1,0,2,1,2,0,0,0,0,0,0,0,0,0,0],"split_type":[0,0,0,0,0,0,0,0,0,0,0,0,0,0,0,0,0,0,0,0,0,0,0],